{"learner":{"attributes":{},"feature_names":["imptotal","ctruser","varietytotal","adimptotal"],"feature_types":["int","float","int","int"],"gradient_booster":{"model":{"gbtree_model_param":{"num_parallel_tree":"1","num_trees":"100"},"iteration_indptr":[0,1,2,3,4,5,6,7,8,9,10,11,12,13,14,15,16,17,18,19,20,21,22,23,24,25,26,27,28,29,30,31,32,33,34,35,36,37,38,39,40,41,42,43,44,45,46,47,48,49,50,51,52,53,54,55,56,57,58,59,60,61,62,63,64,65,66,67,68,69,70,71,72,73,74,75,76,77,78,79,80,81,82,83,84,85,86,87,88,89,90,91,92,93,94,95,96,97,98,99,100],"tree_info":[0,0,0,0,0,0,0,0,0,0,0,0,0,0,0,0,0,0,0,0,0,0,0,0,0,0,0,0,0,0,0,0,0,0,0,0,0,0,0,0,0,0,0,0,0,0,0,0,0,0,0,0,0,0,0,0,0,0,0,0,0,0,0,0,0,0,0,0,0,0,0,0,0,0,0,0,0,0,0,0,0,0,0,0,0,0,0,0,0,0,0,0,0,0,0,0,0,0,0,0],"trees":[{"base_weights":[-4.2960507E-1,-6.2150246E-1,-6.341732E-2,-7.481313E-1,-4.6015137E-1,-2.7206415E-2,1.1043894E-1,-8.408501E-2,-6.8196684E-2,-5.173235E-2,-3.8077276E-2,-3.5347848E-4,2.8413218E-1,2.3679359E-2,5.321341E-1,3.6123216E-2,8.7156487E-1,1.5702625E-1,4.823933E-2],"categories":[],"categories_nodes":[],"categories_segments":[],"categories_sizes":[],"default_left":[0,0,0,0,0,0,0,0,0,0,0,0,0,0,0,0,0,0,0],"id":0,"left_children":[1,3,5,7,9,-1,11,-1,-1,-1,-1,-1,13,-1,15,-1,17,-1,-1],"loss_changes":[6.438269E2,1.2249097E2,1.14356606E2,2.0081055E1,1.1811951E1,0E0,3.4048813E1,0E0,0E0,0E0,0E0,0E0,7.874073E0,0E0,5.9746456E0,0E0,8.922848E0,0E0,0E0],"parents":[2147483647,0,0,1,1,2,2,3,3,4,4,6,6,12,12,14,14,16,16],"right_children":[2,4,6,8,10,-1,12,-1,-1,-1,-1,-1,14,-1,16,-1,18,-1,-1],"split_conditions":[1.4210069E-1,7.573268E-2,1.8970256E-1,3.113036E-2,1.1253497E-1,-2.7206415E-2,2.4545395E-1,-8.408501E-2,-6.8196684E-2,-5.173235E-2,-3.8077276E-2,-3.5347848E-4,3.273853E-1,2.3679359E-2,2.8E1,3.6123216E-2,1.5E1,1.5702625E-1,4.823933E-2],"split_indices":[1,1,1,1,1,0,1,0,0,0,0,0,1,0,2,0,3,0,0],"split_type":[0,0,0,0,0,0,0,0,0,0,0,0,0,0,0,0,0,0,0],"sum_hessian":[9.161688E3,6.010987E3,3.1507012E3,3.3658342E3,2.6451528E3,1.4318079E3,1.7188933E3,1.3967727E3,1.9690615E3,1.5344521E3,1.1107007E3,1.0384589E3,6.8043445E2,5.730127E2,1.0742178E2,7.282096E1,3.4600815E1,1.1292316E1,2.33085E1],"tree_param":{"num_deleted":"0","num_feature":"4","num_nodes":"19","size_leaf_vector":"1"}},{"base_weights":[-3.986092E-1,-6.105978E-1,-9.913052E-2,-7.106925E-1,-4.552007E-1,-2.736715E-2,9.870709E-2,-8.024375E-2,-6.447222E-2,-5.068881E-2,-4.0152483E-2,5.444464E-4,2.6552045E-1,6.7001715E-2,2.4055863E-2],"categories":[],"categories_nodes":[],"categories_segments":[],"categories_sizes":[],"default_left":[0,0,0,0,0,0,0,0,0,0,0,0,0,0,0],"id":1,"left_children":[1,3,5,7,9,-1,11,-1,-1,-1,-1,-1,13,-1,-1],"loss_changes":[5.655487E2,8.081433E1,1.2757669E2,1.8674805E1,5.473999E0,0E0,2.6945442E1,0E0,0E0,0E0,0E0,0E0,6.110073E0,0E0,0E0],"parents":[2147483647,0,0,1,1,2,2,3,3,4,4,6,6,12,12],"right_children":[2,4,6,8,10,-1,12,-1,-1,-1,-1,-1,14,-1,-1],"split_conditions":[1.2646988E-1,7.495565E-2,1.8970256E-1,3.113036E-2,1.0035758E-1,-2.736715E-2,2.5146753E-1,-8.024375E-2,-6.447222E-2,-5.068881E-2,-4.0152483E-2,5.444464E-4,5E0,6.7001715E-2,2.4055863E-2],"split_indices":[1,1,1,1,1,0,1,0,0,0,0,0,3,0,0],"split_type":[0,0,0,0,0,0,0,0,0,0,0,0,0,0,0],"sum_hessian":[8.908187E3,5.215389E3,3.6927974E3,3.169968E3,2.0454213E3,1.9617087E3,1.7310887E3,1.3212882E3,1.8486798E3,1.0377109E3,1.0077104E3,1.1109868E3,6.201019E2,3.4540752E1,5.8556116E2],"tree_param":{"num_deleted":"0","num_feature":"4","num_nodes":"15","size_leaf_vector":"1"}},{"base_weights":[-3.6934668E-1,-6.0093594E-1,-1.2065288E-1,-7.2434163E-1,-5.0967234E-1,-2.6971224E-1,8.824174E-2,-7.6731496E-2,-6.4717464E-2,-5.838225E-2,-4.5010697E-2,-3.2379355E-2,-2.2297854E-2,-3.7250892E-4,2.2384214E-1,3.0105144E-1,1.0801412E-1,2.7314138E-1,1.1045877E-1,-4.8531913E-3,2.8621843E-2,2.4491632E-2,7.378387E-2],"categories":[],"categories_nodes":[],"categories_segments":[],"categories_sizes":[],"default_left":[0,0,0,0,0,0,0,0,0,0,0,0,0,0,0,0,0,0,0,0,0,0,0],"id":2,"left_children":[1,3,5,7,9,11,13,-1,-1,-1,-1,-1,-1,-1,15,17,19,21,-1,-1,-1,-1,-1],"loss_changes":[4.9951453E2,5.0213867E1,1.3030008E2,5.8273315E0,1.1155701E1,6.0994263E0,2.1737396E1,0E0,0E0,0E0,0E0,0E0,0E0,0E0,6.2670937E0,9.164879E0,7.917331E0,5.1873302E0,0E0,0E0,0E0,0E0,0E0],"parents":[2147483647,0,0,1,1,2,2,3,3,4,4,5,5,6,6,14,14,15,15,16,16,17,17],"right_children":[2,4,6,8,10,12,14,-1,-1,-1,-1,-1,-1,-1,16,18,20,22,-1,-1,-1,-1,-1],"split_conditions":[1.1253497E-1,4.7079153E-2,1.8970256E-1,3.0402586E-2,7.573268E-2,1.4418851E-1,2.4545395E-1,-7.6731496E-2,-6.4717464E-2,-5.838225E-2,-4.5010697E-2,-3.2379355E-2,-2.2297854E-2,-3.7250892E-4,2.45E2,2.4E2,2.9E1,3.680315E-1,1.1045877E-1,-4.8531913E-3,2.8621843E-2,2.4491632E-2,7.378387E-2],"split_indices":[1,1,1,1,1,1,1,0,0,0,0,0,0,0,0,0,3,1,0,0,0,0,0],"split_type":[0,0,0,0,0,0,0,0,0,0,0,0,0,0,0,0,0,0,0,0,0,0,0],"sum_hessian":[8.673168E3,4.4902915E3,4.182876E3,1.9060339E3,2.5842576E3,2.4408708E3,1.742005E3,1.218515E3,6.875189E2,1.1472717E3,1.436986E3,1.1287395E3,1.3121313E3,1.0385874E3,7.034176E2,4.2111154E2,2.8230606E2,4.082706E2,1.2840965E1,1.5067299E2,1.3163309E2,3.8633234E2,2.193824E1],"tree_param":{"num_deleted":"0","num_feature":"4","num_nodes":"23","size_leaf_vector":"1"}},{"base_weights":[-3.4174E-1,-5.6523937E-1,-1.0963206E-1,-6.8778396E-1,-4.7602224E-1,-2.4744378E-1,7.9003245E-2,-7.310619E-2,-6.1077684E-2,-5.4837883E-2,-4.1846137E-2,-2.9821632E-2,-2.0387156E-2,-3.3537057E-4,1.9873081E-1,1.6068328E-2,3.936016E-2],"categories":[],"categories_nodes":[],"categories_segments":[],"categories_sizes":[],"default_left":[0,0,0,0,0,0,0,0,0,0,0,0,0,0,0,0,0],"id":3,"left_children":[1,3,5,7,9,11,13,-1,-1,-1,-1,-1,-1,-1,15,-1,-1],"loss_changes":[4.3864392E2,4.6772827E1,1.0789726E2,5.5949707E0,1.0167358E1,5.2445526E0,1.7282043E1,0E0,0E0,0E0,0E0,0E0,0E0,0E0,5.2325897E0,0E0,0E0],"parents":[2147483647,0,0,1,1,2,2,3,3,4,4,5,5,6,6,14,14],"right_children":[2,4,6,8,10,12,14,-1,-1,-1,-1,-1,-1,-1,16,-1,-1],"split_conditions":[1.1253497E-1,4.7079153E-2,1.8970256E-1,3.0402586E-2,7.573268E-2,1.4418851E-1,2.4545395E-1,-7.310619E-2,-6.1077684E-2,-5.4837883E-2,-4.1846137E-2,-2.9821632E-2,-2.0387156E-2,-3.3537057E-4,3.273853E-1,1.6068328E-2,3.936016E-2],"split_indices":[1,1,1,1,1,1,1,0,0,0,0,0,0,0,1,0,0],"split_type":[0,0,0,0,0,0,0,0,0,0,0,0,0,0,0,0,0],"sum_hessian":[8.455819E3,4.3070635E3,4.148756E3,1.8117788E3,2.495285E3,2.3971516E3,1.7516042E3,1.154472E3,6.5730676E2,1.1017756E3,1.3935093E3,1.1044022E3,1.2927495E3,1.0383363E3,7.1326794E2,5.982811E2,1.14986824E2],"tree_param":{"num_deleted":"0","num_feature":"4","num_nodes":"17","size_leaf_vector":"1"}},{"base_weights":[-3.1573838E-1,-5.307669E-1,-9.9565275E-2,-6.521483E-1,-4.438013E-1,-2.2893732E-2,6.8001404E-2,-6.956427E-2,-5.754876E-2,-5.141863E-2,-3.8835306E-2,-3.0951216E-3,1.5163575E-1,1.05680665E-2,2.706562E-1,2.1131055E-2,6.130098E-1,1.5694861E-1,4.136203E-2],"categories":[],"categories_nodes":[],"categories_segments":[],"categories_sizes":[],"default_left":[0,0,0,0,0,0,0,0,0,0,0,0,0,0,0,0,0,0,0],"id":4,"left_children":[1,3,5,7,9,-1,11,-1,-1,-1,-1,-1,13,-1,15,-1,17,-1,-1],"loss_changes":[3.8373767E2,4.3401855E1,8.929886E1,5.3530273E0,9.223297E0,0E0,1.4861114E1,0E0,0E0,0E0,0E0,0E0,5.2935886E0,0E0,5.3644276E0,0E0,6.869297E0,0E0,0E0],"parents":[2147483647,0,0,1,1,2,2,3,3,4,4,6,6,12,12,14,14,16,16],"right_children":[2,4,6,8,10,-1,12,-1,-1,-1,-1,-1,14,-1,16,-1,18,-1,-1],"split_conditions":[1.1253497E-1,4.7079153E-2,1.8828017E-1,3.0402586E-2,7.573268E-2,-2.2893732E-2,2.2772573E-1,-6.956427E-2,-5.754876E-2,-5.141863E-2,-3.8835306E-2,-3.0951216E-3,2.9255942E-1,1.05680665E-2,3.1E1,2.1131055E-2,8.1E1,1.5694861E-1,4.136203E-2],"split_indices":[1,1,1,1,1,0,1,0,0,0,0,0,1,0,2,0,0,0,0],"split_type":[0,0,0,0,0,0,0,0,0,0,0,0,0,0,0,0,0,0,0],"sum_hessian":[8.25551E3,4.1379824E3,4.117528E3,1.7245122E3,2.41347E3,2.3233718E3,1.794156E3,1.0951125E3,6.2939966E2,1.0598474E3,1.3536226E3,8.221055E2,9.7205054E2,7.0264105E2,2.6940945E2,2.3098615E2,3.84233E1,5.442765E0,3.2980537E1],"tree_param":{"num_deleted":"0","num_feature":"4","num_nodes":"19","size_leaf_vector":"1"}},{"base_weights":[-2.91261E-1,-4.975042E-1,-9.031662E-2,-6.1737305E-1,-4.1300574E-1,-2.1780062E-2,5.1858887E-2,-6.609675E-2,-5.4128345E-2,-4.812398E-2,-3.59771E-2,-3.4199753E-3,1.3533518E-2],"categories":[],"categories_nodes":[],"categories_segments":[],"categories_sizes":[],"default_left":[0,0,0,0,0,0,0,0,0,0,0,0,0],"id":5,"left_children":[1,3,5,7,9,-1,11,-1,-1,-1,-1,-1,-1],"loss_changes":[3.3449426E2,4.0091248E1,7.414007E1,5.098633E0,8.324524E0,0E0,1.3900486E1,0E0,0E0,0E0,0E0,0E0,0E0],"parents":[2147483647,0,0,1,1,2,2,3,3,4,4,6,6],"right_children":[2,4,6,8,10,-1,12,-1,-1,-1,-1,-1,-1],"split_conditions":[1.1253497E-1,4.7079153E-2,1.8270792E-1,3.0402586E-2,7.573268E-2,-2.1780062E-2,2.2772573E-1,-6.609675E-2,-5.4128345E-2,-4.812398E-2,-3.59771E-2,-3.4199753E-3,1.3533518E-2],"split_indices":[1,1,1,1,1,0,1,0,0,0,0,0,0],"split_type":[0,0,0,0,0,0,0,0,0,0,0,0,0],"sum_hessian":[8.0711914E3,3.9823508E3,4.0888406E3,1.6439503E3,2.3384004E3,2.1555234E3,1.9333171E3,1.0402605E3,6.036899E2,1.0213002E3,1.3171003E3,9.5222516E2,9.81092E2],"tree_param":{"num_deleted":"0","num_feature":"4","num_nodes":"13","size_leaf_vector":"1"}},{"base_weights":[-2.6829487E-1,-4.7641248E-1,-9.1479324E-2,-5.834319E-2,-3.9458963E-1,-2.0611778E-2,4.6499636E-2,-4.495492E-2,-3.4373477E-2,7.9350796E-4,1.9884098E-2],"categories":[],"categories_nodes":[],"categories_segments":[],"categories_sizes":[],"default_left":[0,0,0,0,0,0,0,0,0,0,0],"id":6,"left_children":[1,3,5,-1,7,-1,9,-1,-1,-1,-1],"loss_changes":[2.9078424E2,3.1556824E1,6.761775E1,0E0,5.6039124E0,0E0,1.1398603E1,0E0,0E0,0E0,0E0],"parents":[2147483647,0,0,1,1,2,2,4,4,6,6],"right_children":[2,4,6,-1,8,-1,10,-1,-1,-1,-1],"split_conditions":[1.0649141E-1,4.7079153E-2,1.8270792E-1,-5.834319E-2,7.573268E-2,-2.0611778E-2,2.7732748E-1,-4.495492E-2,-3.4373477E-2,7.9350796E-4,1.9884098E-2],"split_indices":[1,1,1,0,1,0,1,0,0,0,0],"split_type":[0,0,0,0,0,0,0,0,0,0,0],"sum_hessian":[7.902267E3,3.629056E3,4.273211E3,1.5697657E3,2.0592903E3,2.3337468E3,1.9394642E3,9.8593604E2,1.0733541E3,1.5485161E3,3.909481E2],"tree_param":{"num_deleted":"0","num_feature":"4","num_nodes":"11","size_leaf_vector":"1"}},{"base_weights":[-2.4676357E-1,-4.5612532E-1,-9.131076E-2,-5.9398968E-2,-3.983116E-1,-1.9320062E-1,4.374415E-2,-4.383715E-2,-3.3106904E-2,-2.345796E-2,-1.4360778E-2,-3.0000962E-3,1.11799E-2],"categories":[],"categories_nodes":[],"categories_segments":[],"categories_sizes":[],"default_left":[0,0,0,0,0,0,0,0,0,0,0,0,0],"id":7,"left_children":[1,3,5,-1,7,9,11,-1,-1,-1,-1,-1,-1],"loss_changes":[2.5214355E2,2.6078247E1,6.1217037E1,0E0,6.128937E0,5.169441E0,9.606913E0,0E0,0E0,0E0,0E0,0E0,0E0],"parents":[2147483647,0,0,1,1,2,2,4,4,5,5,6,6],"right_children":[2,4,6,-1,8,10,12,-1,-1,-1,-1,-1,-1],"split_conditions":[1.0035758E-1,3.113036E-2,1.8405718E-1,-5.9398968E-2,7.495565E-2,1.4210069E-1,2.2772573E-1,-4.383715E-2,-3.3106904E-2,-2.345796E-2,-1.4360778E-2,-3.0000962E-3,1.11799E-2],"split_indices":[1,1,1,0,1,1,1,0,0,0,0,0,0],"split_type":[0,0,0,0,0,0,0,0,0,0,0,0,0],"sum_hessian":[7.7476094E3,3.3005457E3,4.447064E3,9.7241693E2,2.3281287E3,2.5345134E3,1.9125505E3,1.4554949E3,8.726338E2,1.3796439E3,1.1548695E3,9.181694E2,9.9438116E2],"tree_param":{"num_deleted":"0","num_feature":"4","num_nodes":"13","size_leaf_vector":"1"}},{"base_weights":[-2.2664693E-1,-4.3544525E-1,-8.925956E-2,-5.6133788E-2,-3.7925515E-2,-1.829333E-2,3.7546083E-2,-9.595967E-4,1.2763225E-2],"categories":[],"categories_nodes":[],"categories_segments":[],"categories_sizes":[],"default_left":[0,0,0,0,0,0,0,0,0],"id":8,"left_children":[1,3,5,-1,-1,-1,7,-1,-1],"loss_changes":[2.1818033E2,2.1141174E1,5.4521446E1,0E0,0E0,0E0,8.285555E0,0E0,0E0],"parents":[2147483647,0,0,1,1,2,2,6,6],"right_children":[2,4,6,-1,-1,-1,8,-1,-1],"split_conditions":[9.532173E-2,3.113036E-2,1.8270792E-1,-5.6133788E-2,-3.7925515E-2,-1.829333E-2,2.5146753E-1,-9.595967E-4,1.2763225E-2],"split_indices":[1,1,1,0,0,0,1,0,0],"split_type":[0,0,0,0,0,0,0,0,0],"sum_hessian":[7.6061016E3,3.0176992E3,4.5884023E3,9.284774E2,2.0892217E3,2.6387012E3,1.9497014E3,1.2805065E3,6.69195E2],"tree_param":{"num_deleted":"0","num_feature":"4","num_nodes":"9","size_leaf_vector":"1"}},{"base_weights":[-2.0786479E-1,-3.7793076E-1,-5.947144E-2,-4.886699E-2,-3.0461052E-1,-1.4241623E-2,4.2725507E-2,-3.618158E-2,-2.6165778E-2,1.1462647E-3,1.50553305E-2],"categories":[],"categories_nodes":[],"categories_segments":[],"categories_sizes":[],"default_left":[0,0,0,0,0,0,0,0,0,0,0],"id":9,"left_children":[1,3,5,-1,7,-1,9,-1,-1,-1,-1],"loss_changes":[1.8869794E2,2.8142181E1,3.3867607E1,0E0,5.0628815E0,0E0,6.033734E0,0E0,0E0,0E0,0E0],"parents":[2147483647,0,0,1,1,2,2,4,4,6,6],"right_children":[2,4,6,-1,8,-1,10,-1,-1,-1,-1],"split_conditions":[1.1253497E-1,4.7079153E-2,1.8970256E-1,-4.886699E-2,7.573268E-2,-1.4241623E-2,2.7732748E-1,-3.618158E-2,-2.6165778E-2,1.1462647E-3,1.50553305E-2],"split_indices":[1,1,1,0,1,0,1,0,0,0,0],"split_type":[0,0,0,0,0,0,0,0,0,0,0],"sum_hessian":[7.477026E3,3.4833694E3,3.9936567E3,1.3853472E3,2.0980222E3,2.2042534E3,1.7894033E3,8.9655304E2,1.2014691E3,1.3880638E3,4.0133948E2],"tree_param":{"num_deleted":"0","num_feature":"4","num_nodes":"11","size_leaf_vector":"1"}},{"base_weights":[-1.9038898E-1,-3.7828016E-1,-7.300657E-2,-5.0069816E-2,-3.2509856E-2,-1.520352E-2,3.0933104E-2,-2.5890875E-3,8.416752E-3],"categories":[],"categories_nodes":[],"categories_segments":[],"categories_sizes":[],"default_left":[0,0,0,0,0,0,0,0,0],"id":10,"left_children":[1,3,5,-1,-1,-1,7,-1,-1],"loss_changes":[1.6230356E2,1.8260925E1,3.7226242E1,0E0,0E0,0E0,5.9252315E0,0E0,0E0],"parents":[2147483647,0,0,1,1,2,2,6,6],"right_children":[2,4,6,-1,-1,-1,8,-1,-1],"split_conditions":[9.532173E-2,3.113036E-2,1.8270792E-1,-5.0069816E-2,-3.2509856E-2,-1.520352E-2,2.2772573E-1,-2.5890875E-3,8.416752E-3],"split_indices":[1,1,1,0,0,0,1,0,0],"split_type":[0,0,0,0,0,0,0,0,0],"sum_hessian":[7.3592505E3,2.8288906E3,4.53036E3,8.542016E2,1.974689E3,2.57332E3,1.9570396E3,9.468537E2,1.0101858E3],"tree_param":{"num_deleted":"0","num_feature":"4","num_nodes":"9","size_leaf_vector":"1"}},{"base_weights":[-1.7415456E-1,-3.4322348E-1,-6.0835887E-2,-4.7277093E-2,-2.9403036E-2,-1.3375187E-2,2.7780093E-2,6.6669093E-4,1.5035572E-2],"categories":[],"categories_nodes":[],"categories_segments":[],"categories_sizes":[],"default_left":[0,0,0,0,0,0,0,0,0],"id":11,"left_children":[1,3,5,-1,-1,-1,7,-1,-1],"loss_changes":[1.3893849E2,1.8408234E1,2.8070791E1,0E0,0E0,0E0,5.075538E0,0E0,0E0],"parents":[2147483647,0,0,1,1,2,2,6,6],"right_children":[2,4,6,-1,-1,-1,8,-1,-1],"split_conditions":[1.0035758E-1,3.0402586E-2,1.8270792E-1,-4.7277093E-2,-2.9403036E-2,-1.3375187E-2,2.9255942E-1,6.6669093E-4,1.5035572E-2],"split_indices":[1,1,1,0,0,0,1,0,0],"split_type":[0,0,0,0,0,0,0,0,0],"sum_hessian":[7.252082E3,2.9093572E3,4.3427246E3,7.983456E2,2.1110117E3,2.382127E3,1.9605978E3,1.6734131E3,2.871846E2],"tree_param":{"num_deleted":"0","num_feature":"4","num_nodes":"9","size_leaf_vector":"1"}},{"base_weights":[-1.5910663E-1,-2.8528807E-1,-2.7204778E-2,-4.0322217E-1,-2.2422105E-1,-7.683996E-3,5.2889767E-3,-4.0781476E-2,4.5282587E-2,-2.8855441E-2,-1.9022254E-2],"categories":[],"categories_nodes":[],"categories_segments":[],"categories_sizes":[],"default_left":[0,0,0,0,0,0,0,0,0,0,0],"id":12,"left_children":[1,3,5,7,9,-1,-1,-1,-1,-1,-1],"loss_changes":[1.1908739E2,2.6246948E1,1.3916819E1,5.084671E0,5.219986E0,0E0,0E0,0E0,0E0,0E0,0E0],"parents":[2147483647,0,0,1,1,2,2,3,3,4,4],"right_children":[2,4,6,8,10,-1,-1,-1,-1,-1,-1],"split_conditions":[1.2646988E-1,4.7079153E-2,2.1007857E-1,4.6E1,7.573268E-2,-7.683996E-3,5.2889767E-3,-4.0781476E-2,4.5282587E-2,-2.8855441E-2,-1.9022254E-2],"split_indices":[1,1,1,3,1,0,0,0,0,0,0],"split_type":[0,0,0,0,0,0,0,0,0,0,0],"sum_hessian":[7.154628E3,3.6560107E3,3.4986174E3,1.2453528E3,2.410658E3,2.1600554E3,1.3385619E3,1.239228E3,6.124675E0,8.3090326E2,1.5797546E3],"tree_param":{"num_deleted":"0","num_feature":"4","num_nodes":"11","size_leaf_vector":"1"}},{"base_weights":[-1.4519021E-1,-3.021248E-1,-5.353872E-2,-4.1715868E-2,-2.560105E-1,-1.1840991E-2,2.035966E-3,-2.3625834E-2,-3.9881885E-2],"categories":[],"categories_nodes":[],"categories_segments":[],"categories_sizes":[],"default_left":[0,0,0,0,0,0,0,0,0],"id":13,"left_children":[1,3,5,-1,7,-1,-1,-1,-1],"loss_changes":[1.0163219E2,1.3713913E1,2.1396267E1,0E0,5.1591873E0,0E0,0E0,0E0,0E0],"parents":[2147483647,0,0,1,1,2,2,4,4],"right_children":[2,4,6,-1,8,-1,-1,-1,-1],"split_conditions":[9.532173E-2,3.0402586E-2,1.7746945E-1,-4.1715868E-2,3.5E2,-1.1840991E-2,2.035966E-3,-2.3625834E-2,-3.9881885E-2],"split_indices":[1,1,1,0,0,0,0,0,0],"split_type":[0,0,0,0,0,0,0,0,0],"sum_hessian":[7.066115E3,2.6043674E3,4.4617476E3,7.429656E2,1.8614017E3,2.3756753E3,2.0860725E3,1.6375612E3,2.2384064E2],"tree_param":{"num_deleted":"0","num_feature":"4","num_nodes":"9","size_leaf_vector":"1"}},{"base_weights":[-1.3235144E-1,-2.577697E-1,-3.3977848E-2,-3.508116E-2,-2.0029625E-2,-7.156418E-3,5.45773E-3],"categories":[],"categories_nodes":[],"categories_segments":[],"categories_sizes":[],"default_left":[0,0,0,0,0,0,0],"id":14,"left_children":[1,3,5,-1,-1,-1,-1],"loss_changes":[8.61952E1,1.6352509E1,1.30408535E1,0E0,0E0,0E0,0E0],"parents":[2147483647,0,0,1,1,2,2],"right_children":[2,4,6,-1,-1,-1,-1],"split_conditions":[1.1253497E-1,4.7079153E-2,2.1947728E-1,-3.508116E-2,-2.0029625E-2,-7.156418E-3,5.45773E-3],"split_indices":[1,1,1,0,0,0,0],"split_type":[0,0,0,0,0,0,0],"sum_hessian":[6.985954E3,3.0701477E3,3.9158066E3,1.1703705E3,1.8997772E3,2.7491497E3,1.1666569E3],"tree_param":{"num_deleted":"0","num_feature":"4","num_nodes":"7","size_leaf_vector":"1"}},{"base_weights":[-1.2051528E-1,-2.1921784E-1,-1.2650207E-2,-2.9135764E-1,-1.4673724E-2,-4.4104154E-3,5.715325E-3,-2.961016E-1,6.964894E-2,-3.708465E-2,-2.4890436E-2],"categories":[],"categories_nodes":[],"categories_segments":[],"categories_sizes":[],"default_left":[0,0,0,0,0,0,0,0,0,0,0],"id":15,"left_children":[1,3,5,7,-1,-1,-1,9,-1,-1,-1],"loss_changes":[7.360915E1,1.8834854E1,7.258509E0,8.681046E0,0E0,0E0,0E0,6.2593384E0,0E0,0E0,0E0],"parents":[2147483647,0,0,1,1,2,2,3,3,7,7],"right_children":[2,4,6,8,-1,-1,-1,10,-1,-1,-1],"split_conditions":[1.3198386E-1,7.1704715E-2,2.2772573E-1,4.6E1,-1.4673724E-2,-4.4104154E-3,5.715325E-3,3.0402586E-2,6.964894E-2,-3.708465E-2,-2.4890436E-2],"split_indices":[1,1,1,3,0,0,0,1,0,0,0],"split_type":[0,0,0,0,0,0,0,0,0,0,0],"sum_hessian":[6.913151E3,3.6093562E3,3.303795E3,1.8074178E3,1.8019385E3,2.277779E3,1.0260156E3,1.7994764E3,7.941441E0,6.938265E2,1.1056499E3],"tree_param":{"num_deleted":"0","num_feature":"4","num_nodes":"11","size_leaf_vector":"1"}},{"base_weights":[-1.0963971E-1,-2.4216494E-1,-4.0971242E-2,-3.3978492E-2,-2.022477E-2,-9.165772E-3,1.7826727E-3],"categories":[],"categories_nodes":[],"categories_segments":[],"categories_sizes":[],"default_left":[0,0,0,0,0,0,0],"id":16,"left_children":[1,3,5,-1,-1,-1,-1],"loss_changes":[6.230787E1,9.037964E0,1.3448175E1,0E0,0E0,0E0,0E0],"parents":[2147483647,0,0,1,1,2,2],"right_children":[2,4,6,-1,-1,-1,-1],"split_conditions":[9.174273E-2,3.0402586E-2,1.7746945E-1,-3.3978492E-2,-2.022477E-2,-9.165772E-3,1.7826727E-3],"split_indices":[1,1,1,0,0,0,0],"split_type":[0,0,0,0,0,0,0],"sum_hessian":[6.84688E3,2.336014E3,4.5108657E3,6.7579767E2,1.6602162E3,2.4222334E3,2.0886326E3],"tree_param":{"num_deleted":"0","num_feature":"4","num_nodes":"7","size_leaf_vector":"1"}},{"base_weights":[-9.965373E-2,-2.4480325E-1,-4.573054E-2,-2.4903035E-1,6.0402393E-2,-1.130203E-2,-3.3315537E-6,-3.206022E-2,-2.0901026E-2],"categories":[],"categories_nodes":[],"categories_segments":[],"categories_sizes":[],"default_left":[0,0,0,0,0,0,0,0,0],"id":17,"left_children":[1,3,5,7,-1,-1,-1,-1,-1],"loss_changes":[5.3118423E1,6.7469864E0,1.5222852E1,5.174858E0,0E0,0E0,0E0,0E0,0E0],"parents":[2147483647,0,0,1,1,2,2,3,3],"right_children":[2,4,6,8,-1,-1,-1,-1,-1],"split_conditions":[7.573268E-2,4.6E1,1.4418851E-1,3.0402586E-2,6.0402393E-2,-1.130203E-2,-3.3315537E-6,-3.206022E-2,-2.0901026E-2],"split_indices":[1,3,1,1,0,0,0,0,0],"split_type":[0,0,0,0,0,0,0,0,0],"sum_hessian":[6.7870586E3,1.8374641E3,4.9495947E3,1.829062E3,8.401992E0,2.0012518E3,2.9483425E3,6.5344025E2,1.1756218E3],"tree_param":{"num_deleted":"0","num_feature":"4","num_nodes":"9","size_leaf_vector":"1"}},{"base_weights":[-9.0497725E-2,-2.2512233E-1,-4.1321546E-2,-2.2910742E-2,5.2554548E-2,-1.02645755E-2,-2.996974E-6],"categories":[],"categories_nodes":[],"categories_segments":[],"categories_sizes":[],"default_left":[0,0,0,0,0,0,0],"id":18,"left_children":[1,3,5,-1,-1,-1,-1],"loss_changes":[4.457207E1,5.509468E0,1.2492589E1,0E0,0E0,0E0,0E0],"parents":[2147483647,0,0,1,1,2,2],"right_children":[2,4,6,-1,-1,-1,-1],"split_conditions":[7.573268E-2,4.6E1,1.4418851E-1,-2.2910742E-2,5.2554548E-2,-1.02645755E-2,-2.996974E-6],"split_indices":[1,3,1,0,0,0,0],"split_type":[0,0,0,0,0,0,0],"sum_hessian":[6.7330176E3,1.8004718E3,4.932546E3,1.7916552E3,8.816615E0,1.9842097E3,2.948336E3],"tree_param":{"num_deleted":"0","num_feature":"4","num_nodes":"7","size_leaf_vector":"1"}},{"base_weights":[-8.211083E-2,-2.0774515E-2,-3.7662137E-2,-7.2952234E-3,2.3367098E-3],"categories":[],"categories_nodes":[],"categories_segments":[],"categories_sizes":[],"default_left":[0,0,0,0,0],"id":19,"left_children":[1,-1,3,-1,-1],"loss_changes":[3.732432E1,0E0,1.0639732E1,0E0,0E0],"parents":[2147483647,0,0,2,2],"right_children":[2,-1,4,-1,-1],"split_conditions":[7.495565E-2,-2.0774515E-2,1.8970256E-1,-7.2952234E-3,2.3367098E-3],"split_indices":[1,0,1,0,0],"split_type":[0,0,0,0,0],"sum_hessian":[6.6842188E3,1.745862E3,4.9383564E3,3.128886E3,1.8094706E3],"tree_param":{"num_deleted":"0","num_feature":"4","num_nodes":"5","size_leaf_vector":"1"}},{"base_weights":[-7.4453704E-2,-1.6965361E-1,-2.4740286E-2,-2.5719166E-2,-1.3573776E-2,-4.6470775E-3,4.8825974E-3],"categories":[],"categories_nodes":[],"categories_segments":[],"categories_sizes":[],"default_left":[0,0,0,0,0,0,0],"id":20,"left_children":[1,3,5,-1,-1,-1,-1],"loss_changes":[3.142524E1,6.7283936E0,6.9784737E0,0E0,0E0,0E0,0E0],"parents":[2147483647,0,0,1,1,2,2],"right_children":[2,4,6,-1,-1,-1,-1],"split_conditions":[9.532173E-2,3.113036E-2,2.298552E-1,-2.5719166E-2,-1.3573776E-2,-4.6470775E-3,4.8825974E-3],"split_indices":[1,1,1,0,0,0,0],"split_type":[0,0,0,0,0,0,0],"sum_hessian":[6.6398916E3,2.277028E3,4.3628633E3,6.3401917E2,1.643009E3,3.3682852E3,9.9457806E2],"tree_param":{"num_deleted":"0","num_feature":"4","num_nodes":"7","size_leaf_vector":"1"}},{"base_weights":[-6.747285E-2,-1.309142E-1,-3.2257146E-4,-2.3697117E-2,-1.064759E-2],"categories":[],"categories_nodes":[],"categories_segments":[],"categories_sizes":[],"default_left":[0,0,0,0,0],"id":21,"left_children":[1,3,-1,-1,-1],"loss_changes":[2.690354E1,8.582703E0,0E0,0E0,0E0],"parents":[2147483647,0,0,1,1],"right_children":[2,4,-1,-1,-1],"split_conditions":[1.3198386E-1,3.113036E-2,-3.2257146E-4,-2.3697117E-2,-1.064759E-2],"split_indices":[1,1,0,0,0],"split_type":[0,0,0,0,0],"sum_hessian":[6.599701E3,3.3201523E3,3.2795488E3,6.2014777E2,2.7000046E3],"tree_param":{"num_deleted":"0","num_feature":"4","num_nodes":"5","size_leaf_vector":"1"}},{"base_weights":[-6.1104342E-2,-1.6196152E-2,-2.671396E-2,-7.154559E-3,3.0966775E-4],"categories":[],"categories_nodes":[],"categories_segments":[],"categories_sizes":[],"default_left":[0,0,0,0,0],"id":22,"left_children":[1,-1,3,-1,-1],"loss_changes":[2.276571E1,0E0,6.544462E0,0E0,0E0],"parents":[2147483647,0,0,2,2],"right_children":[2,-1,4,-1,-1],"split_conditions":[7.495565E-2,-1.6196152E-2,1.4418851E-1,-7.154559E-3,3.0966775E-4],"split_indices":[1,0,1,0,0],"split_type":[0,0,0,0,0],"sum_hessian":[6.563775E3,1.6680756E3,4.8956997E3,1.954686E3,2.9410134E3],"tree_param":{"num_deleted":"0","num_feature":"4","num_nodes":"5","size_leaf_vector":"1"}},{"base_weights":[-5.5306233E-2,-1.4867911E-2,-2.4361849E-2,-4.2210096E-3,4.2388546E-3],"categories":[],"categories_nodes":[],"categories_segments":[],"categories_sizes":[],"default_left":[0,0,0,0,0],"id":23,"left_children":[1,-1,3,-1,-1],"loss_changes":[1.8870068E1,0E0,5.848325E0,0E0,0E0],"parents":[2147483647,0,0,2,2],"right_children":[2,-1,4,-1,-1],"split_conditions":[7.410281E-2,-1.4867911E-2,2.2772573E-1,-4.2210096E-3,4.2388546E-3],"split_indices":[1,0,1,0,0],"split_type":[0,0,0,0,0],"sum_hessian":[6.53112E3,1.6247441E3,4.9063755E3,3.8715405E3,1.0348352E3],"tree_param":{"num_deleted":"0","num_feature":"4","num_nodes":"5","size_leaf_vector":"1"}},{"base_weights":[-5.003225E-2,-9.983997E-2,-9.0505084E-5,-1.9426597E-2,-7.932676E-3],"categories":[],"categories_nodes":[],"categories_segments":[],"categories_sizes":[],"default_left":[0,0,0,0,0],"id":24,"left_children":[1,3,-1,-1,-1],"loss_changes":[1.5911066E1,6.238903E0,0E0,0E0,0E0],"parents":[2147483647,0,0,1,1],"right_children":[2,4,-1,-1,-1],"split_conditions":[1.3198386E-1,3.0402586E-2,-9.0505084E-5,-1.9426597E-2,-7.932676E-3],"split_indices":[1,1,0,0,0],"split_type":[0,0,0,0,0],"sum_hessian":[6.501541E3,3.2278975E3,3.2736436E3,5.7457153E2,2.653326E3],"tree_param":{"num_deleted":"0","num_feature":"4","num_nodes":"5","size_leaf_vector":"1"}},{"base_weights":[-4.5242608E-2,-1.2426669E-2,-1.9099998E-3],"categories":[],"categories_nodes":[],"categories_segments":[],"categories_sizes":[],"default_left":[0,0,0],"id":25,"left_children":[1,-1,-1],"loss_changes":[1.3376353E1,0E0,0E0],"parents":[2147483647,0,0],"right_children":[2,-1,-1],"split_conditions":[7.495565E-2,-1.2426669E-2,-1.9099998E-3],"split_indices":[1,0,0],"split_type":[0,0,0],"sum_hessian":[6.474993E3,1.6086377E3,4.8663555E3],"tree_param":{"num_deleted":"0","num_feature":"4","num_nodes":"3","size_leaf_vector":"1"}},{"base_weights":[-4.0885262E-2,-8.07532E-2,5.2462757E-4,-5.801277E-2,-1.5064037E-2,-7.229913E-2,1.226132E-2,-1.9146942E-1,-4.8903762E-3,3.4301743E-2,-2.2118377E-2],"categories":[],"categories_nodes":[],"categories_segments":[],"categories_sizes":[],"default_left":[0,0,0,0,0,0,0,0,0,0,0],"id":26,"left_children":[1,3,-1,5,-1,7,-1,9,-1,-1,-1],"loss_changes":[1.1867897E1,5.4922676E0,0E0,6.7522106E0,0E0,6.7440796E0,0E0,6.383562E0,0E0,0E0,0E0],"parents":[2147483647,0,0,1,1,3,3,5,5,7,7],"right_children":[2,4,-1,6,-1,8,-1,10,-1,-1,-1],"split_conditions":[1.4210069E-1,2.9E1,5.2462757E-4,2.8E1,-1.5064037E-2,3.0402586E-2,1.226132E-2,1.691704E-3,-4.8903762E-3,3.4301743E-2,-2.2118377E-2],"split_indices":[1,2,0,2,0,1,0,1,0,0,0],"split_type":[0,0,0,0,0,0,0,0,0,0,0],"sum_hessian":[6.451626E3,3.460356E3,2.9912698E3,2.612206E3,8.481499E2,2.4212969E3,1.9090938E2,3.961617E2,2.025135E3,2.0309038E1,3.758527E2],"tree_param":{"num_deleted":"0","num_feature":"4","num_nodes":"11","size_leaf_vector":"1"}},{"base_weights":[-3.6951248E-2,-8.69933E-3,-6.5881264E-4],"categories":[],"categories_nodes":[],"categories_segments":[],"categories_sizes":[],"default_left":[0,0,0],"id":27,"left_children":[1,-1,-1],"loss_changes":[9.770724E0,0E0,0E0],"parents":[2147483647,0,0],"right_children":[2,-1,-1],"split_conditions":[1.0649141E-1,-8.69933E-3,-6.5881264E-4],"split_indices":[1,0,0],"split_type":[0,0,0],"sum_hessian":[6.4298857E3,2.427391E3,4.0024946E3],"tree_param":{"num_deleted":"0","num_feature":"4","num_nodes":"3","size_leaf_vector":"1"}},{"base_weights":[-3.336935E-2,-1.2408196E-2,-1.8158928E-3],"categories":[],"categories_nodes":[],"categories_segments":[],"categories_sizes":[],"default_left":[0,0,0],"id":28,"left_children":[1,-1,-1],"loss_changes":[8.84436E0,0E0,0E0],"parents":[2147483647,0,0],"right_children":[2,-1,-1],"split_conditions":[4.7079153E-2,-1.2408196E-2,-1.8158928E-3],"split_indices":[1,0,0],"split_type":[0,0,0],"sum_hessian":[6.4106255E3,9.195305E2,5.4910947E3],"tree_param":{"num_deleted":"0","num_feature":"4","num_nodes":"3","size_leaf_vector":"1"}},{"base_weights":[-3.0124879E-2,-6.2383967E-3,7.9940347E-4],"categories":[],"categories_nodes":[],"categories_segments":[],"categories_sizes":[],"default_left":[0,0,0],"id":29,"left_children":[1,-1,-1],"loss_changes":[7.863891E0,0E0,0E0],"parents":[2147483647,0,0],"right_children":[2,-1,-1],"split_conditions":[1.4418851E-1,-6.2383967E-3,7.9940347E-4],"split_indices":[1,0,0],"split_type":[0,0,0],"sum_hessian":[6.3936587E3,3.4626594E3,2.930999E3],"tree_param":{"num_deleted":"0","num_feature":"4","num_nodes":"3","size_leaf_vector":"1"}},{"base_weights":[-2.718927E-2,-1.0731833E-2,-1.3924548E-3],"categories":[],"categories_nodes":[],"categories_segments":[],"categories_sizes":[],"default_left":[0,0,0],"id":30,"left_children":[1,-1,-1],"loss_changes":[6.7784634E0,0E0,0E0],"parents":[2147483647,0,0],"right_children":[2,-1,-1],"split_conditions":[4.7079153E-2,-1.0731833E-2,-1.3924548E-3],"split_indices":[1,0,0],"split_type":[0,0,0],"sum_hessian":[6.3777974E3,9.0483167E2,5.4729653E3],"tree_param":{"num_deleted":"0","num_feature":"4","num_nodes":"3","size_leaf_vector":"1"}},{"base_weights":[-2.453315E-2,-4.6105444E-2,1.9730653E-3,-4.4496763E-3,-8.6241245E-2],"categories":[],"categories_nodes":[],"categories_segments":[],"categories_sizes":[],"default_left":[0,0,0,0,0],"id":31,"left_children":[1,3,-1,-1,-1],"loss_changes":[6.078616E0,5.581586E0,0E0,0E0,0E0],"parents":[2147483647,0,0,1,1],"right_children":[2,4,-1,-1,-1],"split_conditions":[1.7746945E-1,4.3E1,1.9730653E-3,-4.4496763E-3,-8.6241245E-2],"split_indices":[1,2,0,0,0],"split_type":[0,0,0,0,0],"sum_hessian":[6.363946E3,4.278665E3,2.0852808E3,4.2713022E3,7.362866E0],"tree_param":{"num_deleted":"0","num_feature":"4","num_nodes":"5","size_leaf_vector":"1"}},{"base_weights":[-2.2147832E-2,-9.334116E-3,-1.0486293E-3],"categories":[],"categories_nodes":[],"categories_segments":[],"categories_sizes":[],"default_left":[0,0,0],"id":32,"left_children":[1,-1,-1],"loss_changes":[5.2726126E0,0E0,0E0],"parents":[2147483647,0,0],"right_children":[2,-1,-1],"split_conditions":[4.7079153E-2,-9.334116E-3,-1.0486293E-3],"split_indices":[1,0,0],"split_type":[0,0,0],"sum_hessian":[6.351011E3,8.928972E2,5.458114E3],"tree_param":{"num_deleted":"0","num_feature":"4","num_nodes":"3","size_leaf_vector":"1"}},{"base_weights":[-1.9975906E-2],"categories":[],"categories_nodes":[],"categories_segments":[],"categories_sizes":[],"default_left":[0],"id":33,"left_children":[-1],"loss_changes":[0E0],"parents":[2147483647],"right_children":[-1],"split_conditions":[-1.9975908E-3],"split_indices":[0],"split_type":[0],"sum_hessian":[6.339688E3],"tree_param":{"num_deleted":"0","num_feature":"4","num_nodes":"1","size_leaf_vector":"1"}},{"base_weights":[-1.8006701E-2],"categories":[],"categories_nodes":[],"categories_segments":[],"categories_sizes":[],"default_left":[0],"id":34,"left_children":[-1],"loss_changes":[0E0],"parents":[2147483647],"right_children":[-1],"split_conditions":[-1.8006702E-3],"split_indices":[0],"split_type":[0],"sum_hessian":[6.33031E3],"tree_param":{"num_deleted":"0","num_feature":"4","num_nodes":"1","size_leaf_vector":"1"}},{"base_weights":[-1.6229134E-2],"categories":[],"categories_nodes":[],"categories_segments":[],"categories_sizes":[],"default_left":[0],"id":35,"left_children":[-1],"loss_changes":[0E0],"parents":[2147483647],"right_children":[-1],"split_conditions":[-1.6229134E-3],"split_indices":[0],"split_type":[0],"sum_hessian":[6.321864E3],"tree_param":{"num_deleted":"0","num_feature":"4","num_nodes":"1","size_leaf_vector":"1"}},{"base_weights":[-1.4625036E-2],"categories":[],"categories_nodes":[],"categories_segments":[],"categories_sizes":[],"default_left":[0],"id":36,"left_children":[-1],"loss_changes":[0E0],"parents":[2147483647],"right_children":[-1],"split_conditions":[-1.4625037E-3],"split_indices":[0],"split_type":[0],"sum_hessian":[6.314258E3],"tree_param":{"num_deleted":"0","num_feature":"4","num_nodes":"1","size_leaf_vector":"1"}},{"base_weights":[-1.3177877E-2],"categories":[],"categories_nodes":[],"categories_segments":[],"categories_sizes":[],"default_left":[0],"id":37,"left_children":[-1],"loss_changes":[0E0],"parents":[2147483647],"right_children":[-1],"split_conditions":[-1.3177878E-3],"split_indices":[0],"split_type":[0],"sum_hessian":[6.3074077E3],"tree_param":{"num_deleted":"0","num_feature":"4","num_nodes":"1","size_leaf_vector":"1"}},{"base_weights":[-1.1872615E-2],"categories":[],"categories_nodes":[],"categories_segments":[],"categories_sizes":[],"default_left":[0],"id":38,"left_children":[-1],"loss_changes":[0E0],"parents":[2147483647],"right_children":[-1],"split_conditions":[-1.1872615E-3],"split_indices":[0],"split_type":[0],"sum_hessian":[6.30124E3],"tree_param":{"num_deleted":"0","num_feature":"4","num_nodes":"1","size_leaf_vector":"1"}},{"base_weights":[-1.0695482E-2],"categories":[],"categories_nodes":[],"categories_segments":[],"categories_sizes":[],"default_left":[0],"id":39,"left_children":[-1],"loss_changes":[0E0],"parents":[2147483647],"right_children":[-1],"split_conditions":[-1.0695482E-3],"split_indices":[0],"split_type":[0],"sum_hessian":[6.295686E3],"tree_param":{"num_deleted":"0","num_feature":"4","num_nodes":"1","size_leaf_vector":"1"}},{"base_weights":[-9.6342005E-3],"categories":[],"categories_nodes":[],"categories_segments":[],"categories_sizes":[],"default_left":[0],"id":40,"left_children":[-1],"loss_changes":[0E0],"parents":[2147483647],"right_children":[-1],"split_conditions":[-9.634201E-4],"split_indices":[0],"split_type":[0],"sum_hessian":[6.2906855E3],"tree_param":{"num_deleted":"0","num_feature":"4","num_nodes":"1","size_leaf_vector":"1"}},{"base_weights":[-8.677468E-3],"categories":[],"categories_nodes":[],"categories_segments":[],"categories_sizes":[],"default_left":[0],"id":41,"left_children":[-1],"loss_changes":[0E0],"parents":[2147483647],"right_children":[-1],"split_conditions":[-8.6774677E-4],"split_indices":[0],"split_type":[0],"sum_hessian":[6.286183E3],"tree_param":{"num_deleted":"0","num_feature":"4","num_nodes":"1","size_leaf_vector":"1"}},{"base_weights":[-7.815132E-3],"categories":[],"categories_nodes":[],"categories_segments":[],"categories_sizes":[],"default_left":[0],"id":42,"left_children":[-1],"loss_changes":[0E0],"parents":[2147483647],"right_children":[-1],"split_conditions":[-7.815132E-4],"split_indices":[0],"split_type":[0],"sum_hessian":[6.2821294E3],"tree_param":{"num_deleted":"0","num_feature":"4","num_nodes":"1","size_leaf_vector":"1"}},{"base_weights":[-7.0380615E-3],"categories":[],"categories_nodes":[],"categories_segments":[],"categories_sizes":[],"default_left":[0],"id":43,"left_children":[-1],"loss_changes":[0E0],"parents":[2147483647],"right_children":[-1],"split_conditions":[-7.038062E-4],"split_indices":[0],"split_type":[0],"sum_hessian":[6.27848E3],"tree_param":{"num_deleted":"0","num_feature":"4","num_nodes":"1","size_leaf_vector":"1"}},{"base_weights":[-6.3378457E-3],"categories":[],"categories_nodes":[],"categories_segments":[],"categories_sizes":[],"default_left":[0],"id":44,"left_children":[-1],"loss_changes":[0E0],"parents":[2147483647],"right_children":[-1],"split_conditions":[-6.3378457E-4],"split_indices":[0],"split_type":[0],"sum_hessian":[6.275195E3],"tree_param":{"num_deleted":"0","num_feature":"4","num_nodes":"1","size_leaf_vector":"1"}},{"base_weights":[-5.7069883E-3],"categories":[],"categories_nodes":[],"categories_segments":[],"categories_sizes":[],"default_left":[0],"id":45,"left_children":[-1],"loss_changes":[0E0],"parents":[2147483647],"right_children":[-1],"split_conditions":[-5.706988E-4],"split_indices":[0],"split_type":[0],"sum_hessian":[6.2722373E3],"tree_param":{"num_deleted":"0","num_feature":"4","num_nodes":"1","size_leaf_vector":"1"}},{"base_weights":[-5.138694E-3],"categories":[],"categories_nodes":[],"categories_segments":[],"categories_sizes":[],"default_left":[0],"id":46,"left_children":[-1],"loss_changes":[0E0],"parents":[2147483647],"right_children":[-1],"split_conditions":[-5.138694E-4],"split_indices":[0],"split_type":[0],"sum_hessian":[6.2695747E3],"tree_param":{"num_deleted":"0","num_feature":"4","num_nodes":"1","size_leaf_vector":"1"}},{"base_weights":[-4.6267714E-3],"categories":[],"categories_nodes":[],"categories_segments":[],"categories_sizes":[],"default_left":[0],"id":47,"left_children":[-1],"loss_changes":[0E0],"parents":[2147483647],"right_children":[-1],"split_conditions":[-4.6267716E-4],"split_indices":[0],"split_type":[0],"sum_hessian":[6.267178E3],"tree_param":{"num_deleted":"0","num_feature":"4","num_nodes":"1","size_leaf_vector":"1"}},{"base_weights":[-4.165658E-3],"categories":[],"categories_nodes":[],"categories_segments":[],"categories_sizes":[],"default_left":[0],"id":48,"left_children":[-1],"loss_changes":[0E0],"parents":[2147483647],"right_children":[-1],"split_conditions":[-4.1656577E-4],"split_indices":[0],"split_type":[0],"sum_hessian":[6.2650205E3],"tree_param":{"num_deleted":"0","num_feature":"4","num_nodes":"1","size_leaf_vector":"1"}},{"base_weights":[-3.7504525E-3],"categories":[],"categories_nodes":[],"categories_segments":[],"categories_sizes":[],"default_left":[0],"id":49,"left_children":[-1],"loss_changes":[0E0],"parents":[2147483647],"right_children":[-1],"split_conditions":[-3.7504526E-4],"split_indices":[0],"split_type":[0],"sum_hessian":[6.2630786E3],"tree_param":{"num_deleted":"0","num_feature":"4","num_nodes":"1","size_leaf_vector":"1"}},{"base_weights":[-3.3764485E-3],"categories":[],"categories_nodes":[],"categories_segments":[],"categories_sizes":[],"default_left":[0],"id":50,"left_children":[-1],"loss_changes":[0E0],"parents":[2147483647],"right_children":[-1],"split_conditions":[-3.3764486E-4],"split_indices":[0],"split_type":[0],"sum_hessian":[6.2613306E3],"tree_param":{"num_deleted":"0","num_feature":"4","num_nodes":"1","size_leaf_vector":"1"}},{"base_weights":[-3.0397177E-3],"categories":[],"categories_nodes":[],"categories_segments":[],"categories_sizes":[],"default_left":[0],"id":51,"left_children":[-1],"loss_changes":[0E0],"parents":[2147483647],"right_children":[-1],"split_conditions":[-3.0397178E-4],"split_indices":[0],"split_type":[0],"sum_hessian":[6.2597573E3],"tree_param":{"num_deleted":"0","num_feature":"4","num_nodes":"1","size_leaf_vector":"1"}},{"base_weights":[-2.7364204E-3],"categories":[],"categories_nodes":[],"categories_segments":[],"categories_sizes":[],"default_left":[0],"id":52,"left_children":[-1],"loss_changes":[0E0],"parents":[2147483647],"right_children":[-1],"split_conditions":[-2.7364204E-4],"split_indices":[0],"split_type":[0],"sum_hessian":[6.2583403E3],"tree_param":{"num_deleted":"0","num_feature":"4","num_nodes":"1","size_leaf_vector":"1"}},{"base_weights":[-2.4633727E-3],"categories":[],"categories_nodes":[],"categories_segments":[],"categories_sizes":[],"default_left":[0],"id":53,"left_children":[-1],"loss_changes":[0E0],"parents":[2147483647],"right_children":[-1],"split_conditions":[-2.4633727E-4],"split_indices":[0],"split_type":[0],"sum_hessian":[6.257066E3],"tree_param":{"num_deleted":"0","num_feature":"4","num_nodes":"1","size_leaf_vector":"1"}},{"base_weights":[-2.2175482E-3],"categories":[],"categories_nodes":[],"categories_segments":[],"categories_sizes":[],"default_left":[0],"id":54,"left_children":[-1],"loss_changes":[0E0],"parents":[2147483647],"right_children":[-1],"split_conditions":[-2.2175482E-4],"split_indices":[0],"split_type":[0],"sum_hessian":[6.2559185E3],"tree_param":{"num_deleted":"0","num_feature":"4","num_nodes":"1","size_leaf_vector":"1"}},{"base_weights":[-1.9962061E-3],"categories":[],"categories_nodes":[],"categories_segments":[],"categories_sizes":[],"default_left":[0],"id":55,"left_children":[-1],"loss_changes":[0E0],"parents":[2147483647],"right_children":[-1],"split_conditions":[-1.9962061E-4],"split_indices":[0],"split_type":[0],"sum_hessian":[6.2548853E3],"tree_param":{"num_deleted":"0","num_feature":"4","num_nodes":"1","size_leaf_vector":"1"}},{"base_weights":[-1.7968952E-3],"categories":[],"categories_nodes":[],"categories_segments":[],"categories_sizes":[],"default_left":[0],"id":56,"left_children":[-1],"loss_changes":[0E0],"parents":[2147483647],"right_children":[-1],"split_conditions":[-1.7968952E-4],"split_indices":[0],"split_type":[0],"sum_hessian":[6.2539556E3],"tree_param":{"num_deleted":"0","num_feature":"4","num_nodes":"1","size_leaf_vector":"1"}},{"base_weights":[-1.6174437E-3],"categories":[],"categories_nodes":[],"categories_segments":[],"categories_sizes":[],"default_left":[0],"id":57,"left_children":[-1],"loss_changes":[0E0],"parents":[2147483647],"right_children":[-1],"split_conditions":[-1.6174438E-4],"split_indices":[0],"split_type":[0],"sum_hessian":[6.2531187E3],"tree_param":{"num_deleted":"0","num_feature":"4","num_nodes":"1","size_leaf_vector":"1"}},{"base_weights":[-1.4559312E-3],"categories":[],"categories_nodes":[],"categories_segments":[],"categories_sizes":[],"default_left":[0],"id":58,"left_children":[-1],"loss_changes":[0E0],"parents":[2147483647],"right_children":[-1],"split_conditions":[-1.4559312E-4],"split_indices":[0],"split_type":[0],"sum_hessian":[6.2523657E3],"tree_param":{"num_deleted":"0","num_feature":"4","num_nodes":"1","size_leaf_vector":"1"}},{"base_weights":[-1.3104972E-3],"categories":[],"categories_nodes":[],"categories_segments":[],"categories_sizes":[],"default_left":[0],"id":59,"left_children":[-1],"loss_changes":[0E0],"parents":[2147483647],"right_children":[-1],"split_conditions":[-1.3104972E-4],"split_indices":[0],"split_type":[0],"sum_hessian":[6.2516875E3],"tree_param":{"num_deleted":"0","num_feature":"4","num_nodes":"1","size_leaf_vector":"1"}},{"base_weights":[-1.1795816E-3],"categories":[],"categories_nodes":[],"categories_segments":[],"categories_sizes":[],"default_left":[0],"id":60,"left_children":[-1],"loss_changes":[0E0],"parents":[2147483647],"right_children":[-1],"split_conditions":[-1.1795817E-4],"split_indices":[0],"split_type":[0],"sum_hessian":[6.251077E3],"tree_param":{"num_deleted":"0","num_feature":"4","num_nodes":"1","size_leaf_vector":"1"}},{"base_weights":[-1.0616971E-3],"categories":[],"categories_nodes":[],"categories_segments":[],"categories_sizes":[],"default_left":[0],"id":61,"left_children":[-1],"loss_changes":[0E0],"parents":[2147483647],"right_children":[-1],"split_conditions":[-1.0616972E-4],"split_indices":[0],"split_type":[0],"sum_hessian":[6.250528E3],"tree_param":{"num_deleted":"0","num_feature":"4","num_nodes":"1","size_leaf_vector":"1"}},{"base_weights":[-9.556177E-4],"categories":[],"categories_nodes":[],"categories_segments":[],"categories_sizes":[],"default_left":[0],"id":62,"left_children":[-1],"loss_changes":[0E0],"parents":[2147483647],"right_children":[-1],"split_conditions":[-9.556177E-5],"split_indices":[0],"split_type":[0],"sum_hessian":[6.2500337E3],"tree_param":{"num_deleted":"0","num_feature":"4","num_nodes":"1","size_leaf_vector":"1"}},{"base_weights":[-8.600919E-4],"categories":[],"categories_nodes":[],"categories_segments":[],"categories_sizes":[],"default_left":[0],"id":63,"left_children":[-1],"loss_changes":[0E0],"parents":[2147483647],"right_children":[-1],"split_conditions":[-8.600919E-5],"split_indices":[0],"split_type":[0],"sum_hessian":[6.2495884E3],"tree_param":{"num_deleted":"0","num_feature":"4","num_nodes":"1","size_leaf_vector":"1"}},{"base_weights":[-7.741512E-4],"categories":[],"categories_nodes":[],"categories_segments":[],"categories_sizes":[],"default_left":[0],"id":64,"left_children":[-1],"loss_changes":[0E0],"parents":[2147483647],"right_children":[-1],"split_conditions":[-7.741512E-5],"split_indices":[0],"split_type":[0],"sum_hessian":[6.249188E3],"tree_param":{"num_deleted":"0","num_feature":"4","num_nodes":"1","size_leaf_vector":"1"}},{"base_weights":[-6.9679745E-4],"categories":[],"categories_nodes":[],"categories_segments":[],"categories_sizes":[],"default_left":[0],"id":65,"left_children":[-1],"loss_changes":[0E0],"parents":[2147483647],"right_children":[-1],"split_conditions":[-6.967974E-5],"split_indices":[0],"split_type":[0],"sum_hessian":[6.2488276E3],"tree_param":{"num_deleted":"0","num_feature":"4","num_nodes":"1","size_leaf_vector":"1"}},{"base_weights":[-6.271476E-4],"categories":[],"categories_nodes":[],"categories_segments":[],"categories_sizes":[],"default_left":[0],"id":66,"left_children":[-1],"loss_changes":[0E0],"parents":[2147483647],"right_children":[-1],"split_conditions":[-6.271476E-5],"split_indices":[0],"split_type":[0],"sum_hessian":[6.2485034E3],"tree_param":{"num_deleted":"0","num_feature":"4","num_nodes":"1","size_leaf_vector":"1"}},{"base_weights":[-5.644817E-4],"categories":[],"categories_nodes":[],"categories_segments":[],"categories_sizes":[],"default_left":[0],"id":67,"left_children":[-1],"loss_changes":[0E0],"parents":[2147483647],"right_children":[-1],"split_conditions":[-5.644817E-5],"split_indices":[0],"split_type":[0],"sum_hessian":[6.2482114E3],"tree_param":{"num_deleted":"0","num_feature":"4","num_nodes":"1","size_leaf_vector":"1"}},{"base_weights":[-5.080093E-4],"categories":[],"categories_nodes":[],"categories_segments":[],"categories_sizes":[],"default_left":[0],"id":68,"left_children":[-1],"loss_changes":[0E0],"parents":[2147483647],"right_children":[-1],"split_conditions":[-5.080093E-5],"split_indices":[0],"split_type":[0],"sum_hessian":[6.2479487E3],"tree_param":{"num_deleted":"0","num_feature":"4","num_nodes":"1","size_leaf_vector":"1"}},{"base_weights":[-4.5724976E-4],"categories":[],"categories_nodes":[],"categories_segments":[],"categories_sizes":[],"default_left":[0],"id":69,"left_children":[-1],"loss_changes":[0E0],"parents":[2147483647],"right_children":[-1],"split_conditions":[-4.5724977E-5],"split_indices":[0],"split_type":[0],"sum_hessian":[6.247712E3],"tree_param":{"num_deleted":"0","num_feature":"4","num_nodes":"1","size_leaf_vector":"1"}},{"base_weights":[-4.1149236E-4],"categories":[],"categories_nodes":[],"categories_segments":[],"categories_sizes":[],"default_left":[0],"id":70,"left_children":[-1],"loss_changes":[0E0],"parents":[2147483647],"right_children":[-1],"split_conditions":[-4.1149236E-5],"split_indices":[0],"split_type":[0],"sum_hessian":[6.247499E3],"tree_param":{"num_deleted":"0","num_feature":"4","num_nodes":"1","size_leaf_vector":"1"}},{"base_weights":[-3.7034537E-4],"categories":[],"categories_nodes":[],"categories_segments":[],"categories_sizes":[],"default_left":[0],"id":71,"left_children":[-1],"loss_changes":[0E0],"parents":[2147483647],"right_children":[-1],"split_conditions":[-3.7034537E-5],"split_indices":[0],"split_type":[0],"sum_hessian":[6.247307E3],"tree_param":{"num_deleted":"0","num_feature":"4","num_nodes":"1","size_leaf_vector":"1"}},{"base_weights":[-3.333371E-4],"categories":[],"categories_nodes":[],"categories_segments":[],"categories_sizes":[],"default_left":[0],"id":72,"left_children":[-1],"loss_changes":[0E0],"parents":[2147483647],"right_children":[-1],"split_conditions":[-3.3333712E-5],"split_indices":[0],"split_type":[0],"sum_hessian":[6.2471353E3],"tree_param":{"num_deleted":"0","num_feature":"4","num_nodes":"1","size_leaf_vector":"1"}},{"base_weights":[-2.999558E-4],"categories":[],"categories_nodes":[],"categories_segments":[],"categories_sizes":[],"default_left":[0],"id":73,"left_children":[-1],"loss_changes":[0E0],"parents":[2147483647],"right_children":[-1],"split_conditions":[-2.9995581E-5],"split_indices":[0],"split_type":[0],"sum_hessian":[6.2469795E3],"tree_param":{"num_deleted":"0","num_feature":"4","num_nodes":"1","size_leaf_vector":"1"}},{"base_weights":[-2.6995467E-4],"categories":[],"categories_nodes":[],"categories_segments":[],"categories_sizes":[],"default_left":[0],"id":74,"left_children":[-1],"loss_changes":[0E0],"parents":[2147483647],"right_children":[-1],"split_conditions":[-2.6995467E-5],"split_indices":[0],"split_type":[0],"sum_hessian":[6.24684E3],"tree_param":{"num_deleted":"0","num_feature":"4","num_nodes":"1","size_leaf_vector":"1"}},{"base_weights":[-2.4301189E-4],"categories":[],"categories_nodes":[],"categories_segments":[],"categories_sizes":[],"default_left":[0],"id":75,"left_children":[-1],"loss_changes":[0E0],"parents":[2147483647],"right_children":[-1],"split_conditions":[-2.430119E-5],"split_indices":[0],"split_type":[0],"sum_hessian":[6.2467144E3],"tree_param":{"num_deleted":"0","num_feature":"4","num_nodes":"1","size_leaf_vector":"1"}},{"base_weights":[-2.1869544E-4],"categories":[],"categories_nodes":[],"categories_segments":[],"categories_sizes":[],"default_left":[0],"id":76,"left_children":[-1],"loss_changes":[0E0],"parents":[2147483647],"right_children":[-1],"split_conditions":[-2.1869544E-5],"split_indices":[0],"split_type":[0],"sum_hessian":[6.246601E3],"tree_param":{"num_deleted":"0","num_feature":"4","num_nodes":"1","size_leaf_vector":"1"}},{"base_weights":[-1.9683488E-4],"categories":[],"categories_nodes":[],"categories_segments":[],"categories_sizes":[],"default_left":[0],"id":77,"left_children":[-1],"loss_changes":[0E0],"parents":[2147483647],"right_children":[-1],"split_conditions":[-1.9683488E-5],"split_indices":[0],"split_type":[0],"sum_hessian":[6.2464995E3],"tree_param":{"num_deleted":"0","num_feature":"4","num_nodes":"1","size_leaf_vector":"1"}},{"base_weights":[-1.7711768E-4],"categories":[],"categories_nodes":[],"categories_segments":[],"categories_sizes":[],"default_left":[0],"id":78,"left_children":[-1],"loss_changes":[0E0],"parents":[2147483647],"right_children":[-1],"split_conditions":[-1.7711767E-5],"split_indices":[0],"split_type":[0],"sum_hessian":[6.2464077E3],"tree_param":{"num_deleted":"0","num_feature":"4","num_nodes":"1","size_leaf_vector":"1"}},{"base_weights":[-1.5940661E-4],"categories":[],"categories_nodes":[],"categories_segments":[],"categories_sizes":[],"default_left":[0],"id":79,"left_children":[-1],"loss_changes":[0E0],"parents":[2147483647],"right_children":[-1],"split_conditions":[-1.594066E-5],"split_indices":[0],"split_type":[0],"sum_hessian":[6.246325E3],"tree_param":{"num_deleted":"0","num_feature":"4","num_nodes":"1","size_leaf_vector":"1"}},{"base_weights":[-1.4345004E-4],"categories":[],"categories_nodes":[],"categories_segments":[],"categories_sizes":[],"default_left":[0],"id":80,"left_children":[-1],"loss_changes":[0E0],"parents":[2147483647],"right_children":[-1],"split_conditions":[-1.4345004E-5],"split_indices":[0],"split_type":[0],"sum_hessian":[6.246251E3],"tree_param":{"num_deleted":"0","num_feature":"4","num_nodes":"1","size_leaf_vector":"1"}},{"base_weights":[-1.2914528E-4],"categories":[],"categories_nodes":[],"categories_segments":[],"categories_sizes":[],"default_left":[0],"id":81,"left_children":[-1],"loss_changes":[0E0],"parents":[2147483647],"right_children":[-1],"split_conditions":[-1.2914528E-5],"split_indices":[0],"split_type":[0],"sum_hessian":[6.2461846E3],"tree_param":{"num_deleted":"0","num_feature":"4","num_nodes":"1","size_leaf_vector":"1"}},{"base_weights":[-1.16260046E-4],"categories":[],"categories_nodes":[],"categories_segments":[],"categories_sizes":[],"default_left":[0],"id":82,"left_children":[-1],"loss_changes":[0E0],"parents":[2147483647],"right_children":[-1],"split_conditions":[-1.1626004E-5],"split_indices":[0],"split_type":[0],"sum_hessian":[6.2461245E3],"tree_param":{"num_deleted":"0","num_feature":"4","num_nodes":"1","size_leaf_vector":"1"}},{"base_weights":[-1.04596606E-4],"categories":[],"categories_nodes":[],"categories_segments":[],"categories_sizes":[],"default_left":[0],"id":83,"left_children":[-1],"loss_changes":[0E0],"parents":[2147483647],"right_children":[-1],"split_conditions":[-1.0459661E-5],"split_indices":[0],"split_type":[0],"sum_hessian":[6.24607E3],"tree_param":{"num_deleted":"0","num_feature":"4","num_nodes":"1","size_leaf_vector":"1"}},{"base_weights":[-9.4102106E-5],"categories":[],"categories_nodes":[],"categories_segments":[],"categories_sizes":[],"default_left":[0],"id":84,"left_children":[-1],"loss_changes":[0E0],"parents":[2147483647],"right_children":[-1],"split_conditions":[-9.410211E-6],"split_indices":[0],"split_type":[0],"sum_hessian":[6.2460215E3],"tree_param":{"num_deleted":"0","num_feature":"4","num_nodes":"1","size_leaf_vector":"1"}},{"base_weights":[-8.473536E-5],"categories":[],"categories_nodes":[],"categories_segments":[],"categories_sizes":[],"default_left":[0],"id":85,"left_children":[-1],"loss_changes":[0E0],"parents":[2147483647],"right_children":[-1],"split_conditions":[-8.473536E-6],"split_indices":[0],"split_type":[0],"sum_hessian":[6.2459775E3],"tree_param":{"num_deleted":"0","num_feature":"4","num_nodes":"1","size_leaf_vector":"1"}},{"base_weights":[-7.6222146E-5],"categories":[],"categories_nodes":[],"categories_segments":[],"categories_sizes":[],"default_left":[0],"id":86,"left_children":[-1],"loss_changes":[0E0],"parents":[2147483647],"right_children":[-1],"split_conditions":[-7.6222145E-6],"split_indices":[0],"split_type":[0],"sum_hessian":[6.245938E3],"tree_param":{"num_deleted":"0","num_feature":"4","num_nodes":"1","size_leaf_vector":"1"}},{"base_weights":[-6.862025E-5],"categories":[],"categories_nodes":[],"categories_segments":[],"categories_sizes":[],"default_left":[0],"id":87,"left_children":[-1],"loss_changes":[0E0],"parents":[2147483647],"right_children":[-1],"split_conditions":[-6.8620247E-6],"split_indices":[0],"split_type":[0],"sum_hessian":[6.245903E3],"tree_param":{"num_deleted":"0","num_feature":"4","num_nodes":"1","size_leaf_vector":"1"}},{"base_weights":[-6.170333E-5],"categories":[],"categories_nodes":[],"categories_segments":[],"categories_sizes":[],"default_left":[0],"id":88,"left_children":[-1],"loss_changes":[0E0],"parents":[2147483647],"right_children":[-1],"split_conditions":[-6.170333E-6],"split_indices":[0],"split_type":[0],"sum_hessian":[6.2458706E3],"tree_param":{"num_deleted":"0","num_feature":"4","num_nodes":"1","size_leaf_vector":"1"}},{"base_weights":[-5.548824E-5],"categories":[],"categories_nodes":[],"categories_segments":[],"categories_sizes":[],"default_left":[0],"id":89,"left_children":[-1],"loss_changes":[0E0],"parents":[2147483647],"right_children":[-1],"split_conditions":[-5.548824E-6],"split_indices":[0],"split_type":[0],"sum_hessian":[6.2458413E3],"tree_param":{"num_deleted":"0","num_feature":"4","num_nodes":"1","size_leaf_vector":"1"}},{"base_weights":[-4.9939816E-5],"categories":[],"categories_nodes":[],"categories_segments":[],"categories_sizes":[],"default_left":[0],"id":90,"left_children":[-1],"loss_changes":[0E0],"parents":[2147483647],"right_children":[-1],"split_conditions":[-4.9939817E-6],"split_indices":[0],"split_type":[0],"sum_hessian":[6.245816E3],"tree_param":{"num_deleted":"0","num_feature":"4","num_nodes":"1","size_leaf_vector":"1"}},{"base_weights":[-4.4955897E-5],"categories":[],"categories_nodes":[],"categories_segments":[],"categories_sizes":[],"default_left":[0],"id":91,"left_children":[-1],"loss_changes":[0E0],"parents":[2147483647],"right_children":[-1],"split_conditions":[-4.49559E-6],"split_indices":[0],"split_type":[0],"sum_hessian":[6.2457925E3],"tree_param":{"num_deleted":"0","num_feature":"4","num_nodes":"1","size_leaf_vector":"1"}},{"base_weights":[-4.0391584E-5],"categories":[],"categories_nodes":[],"categories_segments":[],"categories_sizes":[],"default_left":[0],"id":92,"left_children":[-1],"loss_changes":[0E0],"parents":[2147483647],"right_children":[-1],"split_conditions":[-4.0391583E-6],"split_indices":[0],"split_type":[0],"sum_hessian":[6.2457715E3],"tree_param":{"num_deleted":"0","num_feature":"4","num_nodes":"1","size_leaf_vector":"1"}},{"base_weights":[-3.635514E-5],"categories":[],"categories_nodes":[],"categories_segments":[],"categories_sizes":[],"default_left":[0],"id":93,"left_children":[-1],"loss_changes":[0E0],"parents":[2147483647],"right_children":[-1],"split_conditions":[-3.635514E-6],"split_indices":[0],"split_type":[0],"sum_hessian":[6.2457524E3],"tree_param":{"num_deleted":"0","num_feature":"4","num_nodes":"1","size_leaf_vector":"1"}},{"base_weights":[-3.2779255E-5],"categories":[],"categories_nodes":[],"categories_segments":[],"categories_sizes":[],"default_left":[0],"id":94,"left_children":[-1],"loss_changes":[0E0],"parents":[2147483647],"right_children":[-1],"split_conditions":[-3.2779255E-6],"split_indices":[0],"split_type":[0],"sum_hessian":[6.245736E3],"tree_param":{"num_deleted":"0","num_feature":"4","num_nodes":"1","size_leaf_vector":"1"}},{"base_weights":[-2.9512159E-5],"categories":[],"categories_nodes":[],"categories_segments":[],"categories_sizes":[],"default_left":[0],"id":95,"left_children":[-1],"loss_changes":[0E0],"parents":[2147483647],"right_children":[-1],"split_conditions":[-2.951216E-6],"split_indices":[0],"split_type":[0],"sum_hessian":[6.2457207E3],"tree_param":{"num_deleted":"0","num_feature":"4","num_nodes":"1","size_leaf_vector":"1"}},{"base_weights":[-2.657786E-5],"categories":[],"categories_nodes":[],"categories_segments":[],"categories_sizes":[],"default_left":[0],"id":96,"left_children":[-1],"loss_changes":[0E0],"parents":[2147483647],"right_children":[-1],"split_conditions":[-2.6577861E-6],"split_indices":[0],"split_type":[0],"sum_hessian":[6.245707E3],"tree_param":{"num_deleted":"0","num_feature":"4","num_nodes":"1","size_leaf_vector":"1"}},{"base_weights":[-2.395764E-5],"categories":[],"categories_nodes":[],"categories_segments":[],"categories_sizes":[],"default_left":[0],"id":97,"left_children":[-1],"loss_changes":[0E0],"parents":[2147483647],"right_children":[-1],"split_conditions":[-2.395764E-6],"split_indices":[0],"split_type":[0],"sum_hessian":[6.245695E3],"tree_param":{"num_deleted":"0","num_feature":"4","num_nodes":"1","size_leaf_vector":"1"}},{"base_weights":[-2.157564E-5],"categories":[],"categories_nodes":[],"categories_segments":[],"categories_sizes":[],"default_left":[0],"id":98,"left_children":[-1],"loss_changes":[0E0],"parents":[2147483647],"right_children":[-1],"split_conditions":[-2.157564E-6],"split_indices":[0],"split_type":[0],"sum_hessian":[6.2456836E3],"tree_param":{"num_deleted":"0","num_feature":"4","num_nodes":"1","size_leaf_vector":"1"}},{"base_weights":[-1.9447969E-5],"categories":[],"categories_nodes":[],"categories_segments":[],"categories_sizes":[],"default_left":[0],"id":99,"left_children":[-1],"loss_changes":[0E0],"parents":[2147483647],"right_children":[-1],"split_conditions":[-1.9447968E-6],"split_indices":[0],"split_type":[0],"sum_hessian":[6.245674E3],"tree_param":{"num_deleted":"0","num_feature":"4","num_nodes":"1","size_leaf_vector":"1"}}]},"name":"gbtree"},"learner_model_param":{"base_score":"1.7561331E-1","boost_from_average":"1","num_class":"0","num_feature":"4","num_target":"1"},"objective":{"name":"binary:logistic","reg_loss_param":{"scale_pos_weight":"1"}}},"version":[2,1,3]}