{"learner":{"attributes":{},"feature_names":["variety","rep","adimpsession"],"feature_types":["int","int","int"],"gradient_booster":{"model":{"gbtree_model_param":{"num_parallel_tree":"1","num_trees":"100"},"iteration_indptr":[0,1,2,3,4,5,6,7,8,9,10,11,12,13,14,15,16,17,18,19,20,21,22,23,24,25,26,27,28,29,30,31,32,33,34,35,36,37,38,39,40,41,42,43,44,45,46,47,48,49,50,51,52,53,54,55,56,57,58,59,60,61,62,63,64,65,66,67,68,69,70,71,72,73,74,75,76,77,78,79,80,81,82,83,84,85,86,87,88,89,90,91,92,93,94,95,96,97,98,99,100],"tree_info":[0,0,0,0,0,0,0,0,0,0,0,0,0,0,0,0,0,0,0,0,0,0,0,0,0,0,0,0,0,0,0,0,0,0,0,0,0,0,0,0,0,0,0,0,0,0,0,0,0,0,0,0,0,0,0,0,0,0,0,0,0,0,0,0,0,0,0,0,0,0,0,0,0,0,0,0,0,0,0,0,0,0,0,0,0,0,0,0,0,0,0,0,0,0,0,0,0,0,0,0],"trees":[{"base_weights":[-4.2960507E-1,-6.176278E-1,-2.6965237E-1,-8.1635915E-2,-5.4300225E-1,-3.5294944E-1,-1.459196E-1,-2.2056822E-2,-5.553952E-2,-3.247493E-2,-4.6503913E-2,-2.0598346E-2,-2.4053329E-3],"categories":[],"categories_nodes":[],"categories_segments":[],"categories_sizes":[],"default_left":[0,0,0,0,0,0,0,0,0,0,0,0,0],"id":0,"left_children":[1,3,5,-1,7,9,11,-1,-1,-1,-1,-1,-1],"loss_changes":[2.7539893E2,6.2007812E1,5.0993713E1,0E0,1.2122559E1,9.2031555E0,1.4593452E1,0E0,0E0,0E0,0E0,0E0,0E0],"parents":[2147483647,0,0,1,1,2,2,4,4,5,5,6,6],"right_children":[2,4,6,-1,8,10,12,-1,-1,-1,-1,-1,-1],"split_conditions":[4E0,3E0,5E0,-8.1635915E-2,1E0,4E0,6E0,-2.2056822E-2,-5.553952E-2,-3.247493E-2,-4.6503913E-2,-2.0598346E-2,-2.4053329E-3],"split_indices":[0,0,0,0,2,2,0,0,0,0,0,0,0],"split_type":[0,0,0,0,0,0,0,0,0,0,0,0,0],"sum_hessian":[9.161688E3,4.2100073E3,4.9516807E3,1.1466045E3,3.0634028E3,2.9582974E3,1.9933834E3,1.1408135E2,2.9493215E3,2.3667537E3,5.9154364E2,1.3348097E3,6.5857367E2],"tree_param":{"num_deleted":"0","num_feature":"3","num_nodes":"13","size_leaf_vector":"1"}},{"base_weights":[-3.9845175E-1,-5.802633E-1,-2.472999E-1,-7.77724E-2,-5.0745505E-1,-3.2551366E-1,-1.3268441E-1,-2.0171417E-2,-5.1947027E-2,-2.6769752E-2,-3.7628267E-2,-1.8804362E-2,-2.168735E-3],"categories":[],"categories_nodes":[],"categories_segments":[],"categories_sizes":[],"default_left":[0,0,0,0,0,0,0,0,0,0,0,0,0],"id":1,"left_children":[1,3,5,-1,7,9,11,-1,-1,-1,-1,-1,-1],"loss_changes":[2.446853E2,5.773877E1,4.3581726E1,0E0,1.0758362E1,8.387573E0,1.2135143E1,0E0,0E0,0E0,0E0,0E0,0E0],"parents":[2147483647,0,0,1,1,2,2,4,4,5,5,6,6],"right_children":[2,4,6,-1,8,10,12,-1,-1,-1,-1,-1,-1],"split_conditions":[4E0,3E0,5E0,-7.77724E-2,1E0,3E0,6E0,-2.0171417E-2,-5.1947027E-2,-2.6769752E-2,-3.7628267E-2,-1.8804362E-2,-2.168735E-3],"split_indices":[0,0,0,0,2,2,0,0,0,0,0,0,0],"split_type":[0,0,0,0,0,0,0,0,0,0,0,0,0],"sum_hessian":[8.907966E3,4.0425652E3,4.8654004E3,1.0864263E3,2.956139E3,2.890844E3,1.974556E3,1.1245259E2,2.8436863E3,1.3545469E3,1.5362972E3,1.3170099E3,6.5754614E2],"tree_param":{"num_deleted":"0","num_feature":"3","num_nodes":"13","size_leaf_vector":"1"}},{"base_weights":[-3.6899045E-1,-5.443328E-1,-2.2650138E-1,-7.402588E-2,-4.734478E-1,-2.9974186E-1,-1.20547995E-1,-2.7245749E-2,-4.908888E-2,-2.7357403E-2,-4.052002E-2,-1.714742E-2,-1.9550803E-3],"categories":[],"categories_nodes":[],"categories_segments":[],"categories_sizes":[],"default_left":[0,0,0,0,0,0,0,0,0,0,0,0,0],"id":2,"left_children":[1,3,5,-1,7,9,11,-1,-1,-1,-1,-1,-1],"loss_changes":[2.1661536E2,5.3652832E1,3.7115646E1,0E0,9.885376E0,7.6991425E0,1.0069746E1,0E0,0E0,0E0,0E0,0E0,0E0],"parents":[2147483647,0,0,1,1,2,2,4,4,5,5,6,6],"right_children":[2,4,6,-1,8,10,12,-1,-1,-1,-1,-1,-1],"split_conditions":[4E0,3E0,5E0,-7.402588E-2,2E0,4E0,6E0,-2.7245749E-2,-4.908888E-2,-2.7357403E-2,-4.052002E-2,-1.714742E-2,-1.9550803E-3],"split_indices":[0,0,0,0,2,2,0,0,0,0,0,0,0],"split_type":[0,0,0,0,0,0,0,0,0,0,0,0,0],"sum_hessian":[8.673971E3,3.88742E3,4.786551E3,1.0302811E3,2.8571387E3,2.8291006E3,1.9574501E3,2.2946013E2,2.6276785E3,2.269543E3,5.595576E2,1.30083E3,6.566201E2],"tree_param":{"num_deleted":"0","num_feature":"3","num_nodes":"13","size_leaf_vector":"1"}},{"base_weights":[-3.4117547E-1,-5.097867E-1,-2.0719188E-1,-7.0379175E-2,-4.4095433E-1,-2.7559423E-1,-1.0943537E-1,-1.6035262E-2,-4.5239848E-1,-2.2243526E-2,-3.2278746E-2,-1.56199625E-2,-1.7622449E-3,-3.9598256E-2,-4.8807584E-2],"categories":[],"categories_nodes":[],"categories_segments":[],"categories_sizes":[],"default_left":[0,0,0,0,0,0,0,0,0,0,0,0,0,0,0],"id":3,"left_children":[1,3,5,-1,7,9,11,-1,13,-1,-1,-1,-1,-1,-1],"loss_changes":[1.9100946E2,4.9701538E1,3.150203E1,0E0,8.813049E0,6.8866425E0,8.339306E0,0E0,5.1567993E0,0E0,0E0,0E0,0E0,0E0,0E0],"parents":[2147483647,0,0,1,1,2,2,4,4,5,5,6,6,8,8],"right_children":[2,4,6,-1,8,10,12,-1,14,-1,-1,-1,-1,-1,-1],"split_conditions":[4E0,3E0,5E0,-7.0379175E-2,1E0,3E0,6E0,-1.6035262E-2,4E0,-2.2243526E-2,-3.2278746E-2,-1.56199625E-2,-1.7622449E-3,-3.9598256E-2,-4.8807584E-2],"split_indices":[0,0,0,0,2,2,0,0,2,0,0,0,0,0,0],"split_type":[0,0,0,0,0,0,0,0,0,0,0,0,0,0,0],"sum_hessian":[8.458738E3,3.744136E3,4.7146025E3,9.78106E2,2.76603E3,2.7726794E3,1.9419229E3,1.089785E2,2.6570515E3,1.3066111E3,1.4660684E3,1.2861371E3,6.557858E2,1.0340409E3,1.6230107E3],"tree_param":{"num_deleted":"0","num_feature":"3","num_nodes":"15","size_leaf_vector":"1"}},{"base_weights":[-3.149672E-1,-4.766135E-1,-1.8929768E-1,-6.682068E-2,-4.0997764E-1,-2.530151E-1,-9.9274255E-2,-2.2666197E-2,-4.2633668E-2,-2.2895899E-2,-3.5128977E-2,-1.4214489E-2,-1.5881968E-3],"categories":[],"categories_nodes":[],"categories_segments":[],"categories_sizes":[],"default_left":[0,0,0,0,0,0,0,0,0,0,0,0,0],"id":4,"left_children":[1,3,5,-1,7,9,11,-1,-1,-1,-1,-1,-1],"loss_changes":[1.6774805E2,4.5855164E1,2.6647797E1,0E0,7.950409E0,6.355133E0,6.8935013E0,0E0,0E0,0E0,0E0,0E0,0E0],"parents":[2147483647,0,0,1,1,2,2,4,4,5,5,6,6],"right_children":[2,4,6,-1,8,10,12,-1,-1,-1,-1,-1,-1],"split_conditions":[4E0,3E0,5E0,-6.682068E-2,2E0,4E0,6E0,-2.2666197E-2,-4.2633668E-2,-2.2895899E-2,-3.5128977E-2,-1.4214489E-2,-1.5881968E-3],"split_indices":[0,0,0,0,2,2,0,0,0,0,0,0,0],"split_type":[0,0,0,0,0,0,0,0,0,0,0,0,0],"sum_hessian":[8.261196E3,3.6121562E3,4.6490405E3,9.297845E2,2.6823718E3,2.7212E3,1.9278405E3,2.209795E2,2.4613923E3,2.188756E3,5.324438E2,1.2728065E3,6.5503394E2],"tree_param":{"num_deleted":"0","num_feature":"3","num_nodes":"13","size_leaf_vector":"1"}},{"base_weights":[-2.9031518E-1,-4.447808E-1,-1.7275164E-1,-6.334336E-2,-3.8047612E-1,-2.3195821E-1,-8.999524E-2,-3.1610005E-2,-4.2608287E-2,-1.835511E-2,-2.753885E-2,-1.2923499E-2,-1.4311809E-3],"categories":[],"categories_nodes":[],"categories_segments":[],"categories_sizes":[],"default_left":[0,0,0,0,0,0,0,0,0,0,0,0,0],"id":5,"left_children":[1,3,5,-1,7,9,11,-1,-1,-1,-1,-1,-1],"loss_changes":[1.466742E2,4.2119568E1,2.2470688E1,0E0,7.5184937E0,5.573822E0,5.6885176E0,0E0,0E0,0E0,0E0,0E0,0E0],"parents":[2147483647,0,0,1,1,2,2,4,4,5,5,6,6],"right_children":[2,4,6,-1,8,10,12,-1,-1,-1,-1,-1,-1],"split_conditions":[4E0,3E0,5E0,-6.334336E-2,4E0,3E0,6E0,-3.1610005E-2,-4.2608287E-2,-1.835511E-2,-2.753885E-2,-1.2923499E-2,-1.4311809E-3],"split_indices":[0,0,0,0,2,2,0,0,0,0,0,0,0],"split_type":[0,0,0,0,0,0,0,0,0,0,0,0,0],"sum_hessian":[8.080218E3,3.4908457E3,4.5893726E3,8.851632E2,2.6056824E3,2.674294E3,1.9150785E3,1.0837915E3,1.521891E3,1.2671565E3,1.4071375E3,1.2607218E3,6.543567E2],"tree_param":{"num_deleted":"0","num_feature":"3","num_nodes":"13","size_leaf_vector":"1"}},{"base_weights":[-2.6718175E-1,-4.1430238E-1,-1.5747836E-1,-5.99439E-1,-3.5246038E-1,-2.1236071E-1,-8.153222E-3,-5.7603266E-2,-8.902958E-2,-9.677148E-3,-3.633417E-2,-1.9044502E-2,-3.0306896E-2],"categories":[],"categories_nodes":[],"categories_segments":[],"categories_sizes":[],"default_left":[0,0,0,0,0,0,0,0,0,0,0,0,0],"id":6,"left_children":[1,3,5,7,9,11,-1,-1,-1,-1,-1,-1,-1],"loss_changes":[1.276922E2,3.8494446E1,1.8889725E1,5.240265E0,7.0221863E0,5.175728E0,0E0,0E0,0E0,0E0,0E0,0E0,0E0],"parents":[2147483647,0,0,1,1,2,2,3,3,4,4,5,5],"right_children":[2,4,6,8,10,12,-1,-1,-1,-1,-1,-1,-1],"split_conditions":[4E0,3E0,5E0,7E0,1E0,4E0,-8.153222E-3,-5.7603266E-2,-8.902958E-2,-9.677148E-3,-3.633417E-2,-1.9044502E-2,-3.0306896E-2],"split_indices":[0,0,0,2,2,2,0,0,0,0,0,0,0],"split_type":[0,0,0,0,0,0,0,0,0,0,0,0,0],"sum_hessian":[7.914761E3,3.379635E3,4.535126E3,8.4406384E2,2.5355713E3,2.6316052E3,1.9035209E3,7.8395624E2,6.0107574E1,1.0390517E2,2.431666E3,2.1220127E3,5.0959247E2],"tree_param":{"num_deleted":"0","num_feature":"3","num_nodes":"13","size_leaf_vector":"1"}},{"base_weights":[-2.4552937E-1,-1.5901777E-1,-4.1355678E-1,-2.0887373E-1,-7.3806876E-3,-5.973457E-2,-3.46696E-2,-2.7310127E-2,-1.7382203E-2],"categories":[],"categories_nodes":[],"categories_segments":[],"categories_sizes":[],"default_left":[0,0,0,0,0,0,0,0,0],"id":7,"left_children":[1,3,5,7,-1,-1,-1,-1,-1],"loss_changes":[1.1280594E2,2.1766998E1,3.2214813E1,7.233658E0,0E0,0E0,0E0,0E0,0E0],"parents":[2147483647,0,0,1,1,2,2,3,3],"right_children":[2,4,6,8,-1,-1,-1,-1,-1],"split_conditions":[4E0,5E0,3E0,4E0,-7.3806876E-3,-5.973457E-2,-3.46696E-2,-2.7310127E-2,-1.7382203E-2],"split_indices":[2,0,0,0,0,0,0,0,0],"split_type":[0,0,0,0,0,0,0,0,0],"sum_hessian":[7.7638057E3,5.126363E3,2.6374434E3,3.233201E3,1.8931617E3,7.014214E2,1.9360219E3,1.139122E3,2.0940789E3],"tree_param":{"num_deleted":"0","num_feature":"3","num_nodes":"9","size_leaf_vector":"1"}},{"base_weights":[-2.2529113E-1,-1.4485279E-1,-3.8463154E-1,-1.9099063E-1,-6.677821E-3,-5.6458946E-2,-3.2051854E-2,-1.7221548E-2,-2.9953051E-2],"categories":[],"categories_nodes":[],"categories_segments":[],"categories_sizes":[],"default_left":[0,0,0,0,0,0,0,0,0],"id":8,"left_children":[1,3,5,7,-1,-1,-1,-1,-1],"loss_changes":[9.7703094E1,1.8250832E1,2.9333405E1,6.441696E0,0E0,0E0,0E0,0E0,0E0],"parents":[2147483647,0,0,1,1,2,2,3,3],"right_children":[2,4,6,8,-1,-1,-1,-1,-1],"split_conditions":[4E0,5E0,3E0,3E0,-6.677821E-3,-5.6458946E-2,-3.2051854E-2,-1.7221548E-2,-2.9953051E-2],"split_indices":[2,0,0,1,0,0,0,0,0],"split_type":[0,0,0,0,0,0,0,0,0],"sum_hessian":[7.6262275E3,5.0691333E3,2.5570942E3,3.18533E3,1.8838032E3,6.6965204E2,1.8874423E3,2.7177947E3,4.6753543E2],"tree_param":{"num_deleted":"0","num_feature":"3","num_nodes":"9","size_leaf_vector":"1"}},{"base_weights":[-2.0643093E-1,-3.337078E-1,-1.1633452E-1,-5.0359005E-1,-2.8031248E-1,-1.3791591E-2,9.255671E-4,-4.7870748E-2,-8.231017E-2,-1.1467125E-2,-2.9570816E-2],"categories":[],"categories_nodes":[],"categories_segments":[],"categories_sizes":[],"default_left":[0,0,0,0,0,0,0,0,0,0,0],"id":9,"left_children":[1,3,5,7,9,-1,-1,-1,-1,-1,-1],"loss_changes":[8.598877E1,2.8059448E1,1.1911251E1,5.5068207E0,6.004074E0,0E0,0E0,0E0,0E0,0E0,0E0],"parents":[2147483647,0,0,1,1,2,2,3,3,4,4],"right_children":[2,4,6,8,10,-1,-1,-1,-1,-1,-1],"split_conditions":[4E0,3E0,6E0,7E0,2E0,-1.3791591E-2,9.255671E-4,-4.7870748E-2,-8.231017E-2,-1.1467125E-2,-2.9570816E-2],"split_indices":[0,0,0,2,2,0,0,0,0,0,0],"split_type":[0,0,0,0,0,0,0,0,0,0,0],"sum_hessian":[7.501063E3,3.1079036E3,4.3931597E3,7.41218E2,2.3666855E3,3.7488586E3,6.443011E2,6.899826E2,5.1235428E1,2.0198523E2,2.1647004E3],"tree_param":{"num_deleted":"0","num_feature":"3","num_nodes":"11","size_leaf_vector":"1"}},{"base_weights":[-1.8891016E-1,-1.18201226E-1,-3.3362147E-1,-1.5798189E-1,-5.2011353E-3,-5.0291516E-2,-2.7577957E-2,-1.4117456E-2,-2.5661383E-2],"categories":[],"categories_nodes":[],"categories_segments":[],"categories_sizes":[],"default_left":[0,0,0,0,0,0,0,0,0],"id":10,"left_children":[1,3,5,7,-1,-1,-1,-1,-1],"loss_changes":[7.555881E1,1.3064018E1,2.3602783E1,5.1035004E0,0E0,0E0,0E0,0E0,0E0],"parents":[2147483647,0,0,1,1,2,2,3,3],"right_children":[2,4,6,8,-1,-1,-1,-1,-1],"split_conditions":[4E0,5E0,3E0,3E0,-5.2011353E-3,-5.0291516E-2,-2.7577957E-2,-1.4117456E-2,-2.5661383E-2],"split_indices":[2,0,0,1,0,0,0,0,0],"split_type":[0,0,0,0,0,0,0,0,0],"sum_hessian":[7.387136E3,4.963624E3,2.4235125E3,3.099445E3,1.8641787E3,6.1520734E2,1.808305E3,2.6502603E3,4.4918497E2],"tree_param":{"num_deleted":"0","num_feature":"3","num_nodes":"9","size_leaf_vector":"1"}},{"base_weights":[-1.7264998E-1,-2.8663498E-1,-9.440482E-2,-4.436722E-1,-2.3916031E-1,2.7468938E-3,-1.130437E-2,-4.185035E-2,-7.773513E-2,-1.169044E-3,-2.4933578E-2],"categories":[],"categories_nodes":[],"categories_segments":[],"categories_sizes":[],"default_left":[0,0,0,0,0,0,0,0,0,0,0],"id":11,"left_children":[1,3,5,7,9,-1,-1,-1,-1,-1,-1],"loss_changes":[6.4943085E1,2.199617E1,9.818657E0,5.44458E0,5.271179E0,0E0,0E0,0E0,0E0,0E0,0E0],"parents":[2147483647,0,0,1,1,2,2,3,3,4,4],"right_children":[2,4,6,8,10,-1,-1,-1,-1,-1,-1],"split_conditions":[4E0,3E0,1E0,7E0,1E0,2.7468938E-3,-1.130437E-2,-4.185035E-2,-7.773513E-2,-1.169044E-3,-2.4933578E-2],"split_indices":[0,0,2,2,2,0,0,0,0,0,0],"split_type":[0,0,0,0,0,0,0,0,0,0,0],"sum_hessian":[7.283648E3,2.963644E3,4.320004E3,6.860326E2,2.2776116E3,5.7298193E2,3.7470217E3,6.40012E2,4.6020535E1,9.761451E1,2.179997E3],"tree_param":{"num_deleted":"0","num_feature":"3","num_nodes":"11","size_leaf_vector":"1"}},{"base_weights":[-1.5760726E-1,-9.583977E-2,-2.8780293E-1,-1.1327909E-1,1.9638909E-3,-2.3875786E-2,-4.6627443E-2,-1.0124777E-2,-2.1833014E-2],"categories":[],"categories_nodes":[],"categories_segments":[],"categories_sizes":[],"default_left":[0,0,0,0,0,0,0,0,0],"id":12,"left_children":[1,3,5,7,-1,-1,-1,-1,-1],"loss_changes":[5.779973E1,9.826942E0,2.0137009E1,5.335064E0,0E0,0E0,0E0,0E0,0E0],"parents":[2147483647,0,0,1,1,2,2,3,3],"right_children":[2,4,6,8,-1,-1,-1,-1,-1],"split_conditions":[4E0,6E0,4E0,3E0,1.9638909E-3,-2.3875786E-2,-4.6627443E-2,-1.0124777E-2,-2.1833014E-2],"split_indices":[2,0,1,1,0,0,0,0,0],"split_type":[0,0,0,0,0,0,0,0,0],"sum_hessian":[7.189789E3,4.8775273E3,2.312262E3,4.2375947E3,6.399325E2,1.8156481E3,4.9661383E2,3.8039038E3,4.3369077E2],"tree_param":{"num_deleted":"0","num_feature":"3","num_nodes":"9","size_leaf_vector":"1"}},{"base_weights":[-1.437066E-1,-8.690692E-2,-2.6530614E-1,-3.1733163E-2,-1.1975041E-2,-2.1909239E-2,-4.367647E-2,4.3469627E-4,-1.3518224E-2],"categories":[],"categories_nodes":[],"categories_segments":[],"categories_sizes":[],"default_left":[0,0,0,0,0,0,0,0,0],"id":13,"left_children":[1,3,5,7,-1,-1,-1,-1,-1],"loss_changes":[4.905452E1,8.775486E0,1.7826675E1,6.753331E0,0E0,0E0,0E0,0E0,0E0],"parents":[2147483647,0,0,1,1,2,2,3,3],"right_children":[2,4,6,8,-1,-1,-1,-1,-1],"split_conditions":[4E0,2E0,4E0,2E0,-1.1975041E-2,-2.1909239E-2,-4.367647E-2,4.3469627E-4,-1.3518224E-2],"split_indices":[2,2,1,1,0,0,0,0,0],"split_type":[0,0,0,0,0,0,0,0,0],"sum_hessian":[7.104673E3,4.8438184E3,2.2608542E3,1.8081962E3,3.0356223E3,1.7826489E3,4.7820526E2,1.3413345E3,4.6686176E2],"tree_param":{"num_deleted":"0","num_feature":"3","num_nodes":"9","size_leaf_vector":"1"}},{"base_weights":[-1.3089366E-1,-2.2722527E-1,-6.720569E-2,-2.0165792E-2,-4.559022E-2,3.1688556E-3,-8.264425E-3],"categories":[],"categories_nodes":[],"categories_segments":[],"categories_sizes":[],"default_left":[0,0,0,0,0,0,0],"id":14,"left_children":[1,3,5,-1,-1,-1,-1],"loss_changes":[4.3106117E1,1.6260925E1,6.464899E0,0E0,0E0,0E0,0E0],"parents":[2147483647,0,0,1,1,2,2],"right_children":[2,4,6,-1,-1,-1,-1],"split_conditions":[4E0,6E0,1E0,-2.0165792E-2,-4.559022E-2,3.1688556E-3,-8.264425E-3],"split_indices":[0,2,2,0,0,0,0],"split_type":[0,0,0,0,0,0,0],"sum_hessian":[7.0275615E3,2.7959553E3,4.231606E3,2.5164805E3,2.7947488E2,5.712593E2,3.6603467E3],"tree_param":{"num_deleted":"0","num_feature":"3","num_nodes":"7","size_leaf_vector":"1"}},{"base_weights":[-1.1910101E-1,-6.984806E-2,-2.2714777E-1,-9.900511E-3,-2.264514E-3,-3.7294134E-2,-1.8112322E-2],"categories":[],"categories_nodes":[],"categories_segments":[],"categories_sizes":[],"default_left":[0,0,0,0,0,0,0],"id":15,"left_children":[1,3,5,-1,-1,-1,-1],"loss_changes":[3.701584E1,6.5782337E0,1.4549965E1,0E0,0E0,0E0,0E0],"parents":[2147483647,0,0,1,1,2,2],"right_children":[2,4,6,-1,-1,-1,-1],"split_conditions":[4E0,5E0,3E0,-9.900511E-3,-2.264514E-3,-3.7294134E-2,-1.8112322E-2],"split_indices":[2,0,0,0,0,0,0],"split_type":[0,0,0,0,0,0,0],"sum_hessian":[6.957726E3,4.7802866E3,2.1774397E3,2.9543186E3,1.8259679E3,5.2074744E2,1.6566923E3],"tree_param":{"num_deleted":"0","num_feature":"3","num_nodes":"7","size_leaf_vector":"1"}},{"base_weights":[-1.08277194E-1,-1.927563E-1,-5.3674667E-3,-1.7017143E-2,-4.0311735E-2],"categories":[],"categories_nodes":[],"categories_segments":[],"categories_sizes":[],"default_left":[0,0,0,0,0],"id":16,"left_children":[1,3,-1,-1,-1],"loss_changes":[3.1795883E1,1.2790604E1,0E0,0E0,0E0],"parents":[2147483647,0,0,1,1],"right_children":[2,4,-1,-1,-1],"split_conditions":[4E0,6E0,-5.3674667E-3,-1.7017143E-2,-4.0311735E-2],"split_indices":[0,2,0,0,0],"split_type":[0,0,0,0,0],"sum_hessian":[6.894254E3,2.705645E3,4.188609E3,2.4449575E3,2.6068744E2],"tree_param":{"num_deleted":"0","num_feature":"3","num_nodes":"5","size_leaf_vector":"1"}},{"base_weights":[-9.834515E-2,-5.5744532E-2,-1.9381846E-1,-1.0656262E-3,-8.296463E-3,-1.5665863E-2,-3.4036037E-2],"categories":[],"categories_nodes":[],"categories_segments":[],"categories_sizes":[],"default_left":[0,0,0,0,0,0,0],"id":17,"left_children":[1,3,5,-1,-1,-1,-1],"loss_changes":[2.7801414E1,5.803957E0,1.1433365E1,0E0,0E0,0E0,0E0],"parents":[2147483647,0,0,1,1,2,2],"right_children":[2,4,6,-1,-1,-1,-1],"split_conditions":[4E0,2E0,4E0,-1.0656262E-3,-8.296463E-3,-1.5665863E-2,-3.4036037E-2],"split_indices":[2,2,1,0,0,0,0],"split_type":[0,0,0,0,0,0,0],"sum_hessian":[6.8371377E3,4.728738E3,2.1084001E3,1.7806316E3,2.948106E3,1.6835558E3,4.2484424E2],"tree_param":{"num_deleted":"0","num_feature":"3","num_nodes":"7","size_leaf_vector":"1"}},{"base_weights":[-8.9259446E-2,-3.4249015E-2,-1.5490411E-1,7.4468004E-3,-5.189885E-3,-2.939641E-2,-1.2527245E-2],"categories":[],"categories_nodes":[],"categories_segments":[],"categories_sizes":[],"default_left":[0,0,0,0,0,0,0],"id":18,"left_children":[1,3,5,-1,-1,-1,-1],"loss_changes":[2.4501236E1,7.091159E0,1.2711563E1,0E0,0E0,0E0,0E0],"parents":[2147483647,0,0,1,1,2,2],"right_children":[2,4,6,-1,-1,-1,-1],"split_conditions":[2E0,1E0,3E0,7.4468004E-3,-5.189885E-3,-2.939641E-2,-1.2527245E-2],"split_indices":[1,2,0,0,0,0,0],"split_type":[0,0,0,0,0,0,0],"sum_hessian":[6.7853706E3,3.692536E3,3.0928347E3,5.1529193E2,3.177244E3,5.4170734E2,2.5511274E3],"tree_param":{"num_deleted":"0","num_feature":"3","num_nodes":"7","size_leaf_vector":"1"}},{"base_weights":[-8.095632E-2,-1.5082946E-1,-3.6980156E-3,-2.625022E-1,-1.2051487E-2,-2.366065E-2,-6.394795E-2],"categories":[],"categories_nodes":[],"categories_segments":[],"categories_sizes":[],"default_left":[0,0,0,0,0,0,0],"id":19,"left_children":[1,3,-1,5,-1,-1,-1],"loss_changes":[2.0703121E1,8.78001E0,0E0,5.2654495E0,0E0,0E0,0E0],"parents":[2147483647,0,0,1,1,3,3],"right_children":[2,4,-1,6,-1,-1,-1],"split_conditions":[4E0,3E0,-3.6980156E-3,7E0,-1.2051487E-2,-2.366065E-2,-6.394795E-2],"split_indices":[0,0,0,2,0,0,0],"split_type":[0,0,0,0,0,0,0],"sum_hessian":[6.7384624E3,2.601903E3,4.1365596E3,5.538765E2,2.0480264E3,5.197977E2,3.40788E1],"tree_param":{"num_deleted":"0","num_feature":"3","num_nodes":"7","size_leaf_vector":"1"}},{"base_weights":[-7.338436E-2,-3.8916736E-3,-1.5266651E-1,-1.218384E-2,-2.7910778E-2],"categories":[],"categories_nodes":[],"categories_segments":[],"categories_sizes":[],"default_left":[0,0,0,0,0],"id":20,"left_children":[1,-1,3,-1,-1],"loss_changes":[1.8295048E1,0E0,7.8748016E0,0E0,0E0],"parents":[2147483647,0,0,2,2],"right_children":[2,-1,4,-1,-1],"split_conditions":[4E0,-3.8916736E-3,4E0,-1.218384E-2,-2.7910778E-2],"split_indices":[2,0,1,0,0],"split_type":[0,0,0,0,0],"sum_hessian":[6.696116E3,4.668147E3,2.0279692E3,1.6320233E3,3.9594598E2],"tree_param":{"num_deleted":"0","num_feature":"3","num_nodes":"5","size_leaf_vector":"1"}},{"base_weights":[-6.646812E-2,-2.1278616E-2,-1.2150167E-1,7.5121983E-3,-3.7101847E-3,-2.355893E-2,-9.817404E-3],"categories":[],"categories_nodes":[],"categories_segments":[],"categories_sizes":[],"default_left":[0,0,0,0,0,0,0],"id":21,"left_children":[1,3,5,-1,-1,-1,-1],"loss_changes":[1.6557966E1,5.5821996E0,7.967079E0,0E0,0E0,0E0,0E0],"parents":[2147483647,0,0,1,1,2,2],"right_children":[2,4,6,-1,-1,-1,-1],"split_conditions":[2E0,1E0,3E0,7.5121983E-3,-3.7101847E-3,-2.355893E-2,-9.817404E-3],"split_indices":[1,2,0,0,0,0,0],"split_type":[0,0,0,0,0,0,0],"sum_hessian":[6.65801E3,3.656746E3,3.001264E3,5.15062E2,3.141684E3,5.079504E2,2.4933135E3],"tree_param":{"num_deleted":"0","num_feature":"3","num_nodes":"7","size_leaf_vector":"1"}},{"base_weights":[-6.017529E-2,-1.918733E-3,-1.10496856E-1,-1.0530135E-2,-5.878393E-2],"categories":[],"categories_nodes":[],"categories_segments":[],"categories_sizes":[],"default_left":[0,0,0,0,0],"id":22,"left_children":[1,-1,3,-1,-1],"loss_changes":[1.3660982E1,0E0,7.3121643E0,0E0,0E0],"parents":[2147483647,0,0,2,2],"right_children":[2,-1,4,-1,-1],"split_conditions":[2E0,-1.918733E-3,7E0,-1.0530135E-2,-5.878393E-2],"split_indices":[1,0,2,0,0],"split_type":[0,0,0,0,0],"sum_hessian":[6.6232827E3,3.650917E3,2.9723657E3,2.9415696E3,3.0796177E1],"tree_param":{"num_deleted":"0","num_feature":"3","num_nodes":"5","size_leaf_vector":"1"}},{"base_weights":[-5.444889E-2,-8.4125524E-4,-9.6247986E-2,-7.921221E-3,-2.2602497E-2],"categories":[],"categories_nodes":[],"categories_segments":[],"categories_sizes":[],"default_left":[0,0,0,0,0],"id":23,"left_children":[1,-1,3,-1,-1],"loss_changes":[1.2686823E1,0E0,7.6220665E0,0E0,0E0],"parents":[2147483647,0,0,2,2],"right_children":[2,-1,4,-1,-1],"split_conditions":[3E0,-8.4125524E-4,4E0,-7.921221E-3,-2.2602497E-2],"split_indices":[2,0,1,0,0],"split_type":[0,0,0,0,0],"sum_hessian":[6.5924546E3,3.1377864E3,3.454668E3,3.0552207E3,3.9944742E2],"tree_param":{"num_deleted":"0","num_feature":"3","num_nodes":"5","size_leaf_vector":"1"}},{"base_weights":[-4.924399E-2,-1.0089018E-1,-1.7732803E-3,-9.54477E-3,-5.4887153E-2],"categories":[],"categories_nodes":[],"categories_segments":[],"categories_sizes":[],"default_left":[0,0,0,0,0],"id":24,"left_children":[1,3,-1,-1,-1],"loss_changes":[1.0682688E1,6.0126457E0,0E0,0E0,0E0],"parents":[2147483647,0,0,1,1],"right_children":[2,4,-1,-1,-1],"split_conditions":[4E0,7E0,-1.7732803E-3,-9.54477E-3,-5.4887153E-2],"split_indices":[0,2,0,0,0],"split_type":[0,0,0,0,0],"sum_hessian":[6.564234E3,2.4865793E3,4.0776545E3,2.4579314E3,2.8648058E1],"tree_param":{"num_deleted":"0","num_feature":"3","num_nodes":"5","size_leaf_vector":"1"}},{"base_weights":[-4.4521905E-2,-4.7330986E-4,-8.1027746E-2,-6.6081346E-3,-1.9712327E-2],"categories":[],"categories_nodes":[],"categories_segments":[],"categories_sizes":[],"default_left":[0,0,0,0,0],"id":25,"left_children":[1,-1,3,-1,-1],"loss_changes":[9.49892E0,0E0,5.905037E0,0E0,0E0],"parents":[2147483647,0,0,2,2],"right_children":[2,-1,4,-1,-1],"split_conditions":[3E0,-4.7330986E-4,4E0,-6.6081346E-3,-1.9712327E-2],"split_indices":[2,0,1,0,0],"split_type":[0,0,0,0,0],"sum_hessian":[6.5388613E3,3.129287E3,3.409574E3,3.0220745E3,3.874995E2],"tree_param":{"num_deleted":"0","num_feature":"3","num_nodes":"5","size_leaf_vector":"1"}},{"base_weights":[-4.0233247E-2,-8.4136985E-4,-8.0029726E-2,-7.582509E-3,-5.110848E-2],"categories":[],"categories_nodes":[],"categories_segments":[],"categories_sizes":[],"default_left":[0,0,0,0,0],"id":26,"left_children":[1,-1,3,-1,-1],"loss_changes":[8.251608E0,0E0,5.20887E0,0E0,0E0],"parents":[2147483647,0,0,2,2],"right_children":[2,-1,4,-1,-1],"split_conditions":[2E0,-8.4136985E-4,7E0,-7.582509E-3,-5.110848E-2],"split_indices":[1,0,2,0,0],"split_type":[0,0,0,0,0],"sum_hessian":[6.515816E3,3.6214622E3,2.8943538E3,2.8675586E3,2.6795076E1],"tree_param":{"num_deleted":"0","num_feature":"3","num_nodes":"5","size_leaf_vector":"1"}},{"base_weights":[-3.6348484E-2,-1.5523846E-2,-2.652222E-2,1.9183059E-3,-4.4790204E-3],"categories":[],"categories_nodes":[],"categories_segments":[],"categories_sizes":[],"default_left":[0,0,0,0,0],"id":27,"left_children":[1,-1,3,-1,-1],"loss_changes":[7.585129E0,0E0,5.0118203E0,0E0,0E0],"parents":[2147483647,0,0,2,2],"right_children":[2,-1,4,-1,-1],"split_conditions":[3E0,-1.5523846E-2,2E0,1.9183059E-3,-4.4790204E-3],"split_indices":[0,0,2,0,0],"split_type":[0,0,0,0,0],"sum_hessian":[6.4952827E3,4.947236E2,6.000559E3,1.7134846E3,4.2870747E3],"tree_param":{"num_deleted":"0","num_feature":"3","num_nodes":"5","size_leaf_vector":"1"}},{"base_weights":[-3.282513E-2,-1.2542497E-3,-8.160761E-3],"categories":[],"categories_nodes":[],"categories_segments":[],"categories_sizes":[],"default_left":[0,0,0],"id":28,"left_children":[1,-1,-1],"loss_changes":[6.4079533E0,0E0,0E0],"parents":[2147483647,0,0],"right_children":[2,-1,-1],"split_conditions":[4E0,-1.2542497E-3,-8.160761E-3],"split_indices":[2,0,0],"split_type":[0,0,0],"sum_hessian":[6.4763975E3,4.575335E3,1.9010624E3],"tree_param":{"num_deleted":"0","num_feature":"3","num_nodes":"3","size_leaf_vector":"1"}},{"base_weights":[-2.962921E-2,-1.3554043E-2,-2.1007832E-3],"categories":[],"categories_nodes":[],"categories_segments":[],"categories_sizes":[],"default_left":[0,0,0],"id":29,"left_children":[1,-1,-1],"loss_changes":[5.8963404E0,0E0,0E0],"parents":[2147483647,0,0],"right_children":[2,-1,-1],"split_conditions":[3E0,-1.3554043E-2,-2.1007832E-3],"split_indices":[0,0,0],"split_type":[0,0,0],"sum_hessian":[6.459609E3,4.8513553E2,5.974473E3],"tree_param":{"num_deleted":"0","num_feature":"3","num_nodes":"3","size_leaf_vector":"1"}},{"base_weights":[-2.6738396E-2,-1.2636544E-4,-5.901067E-3],"categories":[],"categories_nodes":[],"categories_segments":[],"categories_sizes":[],"default_left":[0,0,0],"id":30,"left_children":[1,-1,-1],"loss_changes":[5.299017E0,0E0,0E0],"parents":[2147483647,0,0],"right_children":[2,-1,-1],"split_conditions":[2E0,-1.2636544E-4,-5.901067E-3],"split_indices":[1,0,0],"split_type":[0,0,0],"sum_hessian":[6.444582E3,3.602175E3,2.8424072E3],"tree_param":{"num_deleted":"0","num_feature":"3","num_nodes":"3","size_leaf_vector":"1"}},{"base_weights":[-2.4122518E-2],"categories":[],"categories_nodes":[],"categories_segments":[],"categories_sizes":[],"default_left":[0],"id":31,"left_children":[-1],"loss_changes":[0E0],"parents":[2147483647],"right_children":[-1],"split_conditions":[-2.412252E-3],"split_indices":[0],"split_type":[0],"sum_hessian":[6.4309663E3],"tree_param":{"num_deleted":"0","num_feature":"3","num_nodes":"1","size_leaf_vector":"1"}},{"base_weights":[-2.175248E-2],"categories":[],"categories_nodes":[],"categories_segments":[],"categories_sizes":[],"default_left":[0],"id":32,"left_children":[-1],"loss_changes":[0E0],"parents":[2147483647],"right_children":[-1],"split_conditions":[-2.175248E-3],"split_indices":[0],"split_type":[0],"sum_hessian":[6.419248E3],"tree_param":{"num_deleted":"0","num_feature":"3","num_nodes":"1","size_leaf_vector":"1"}},{"base_weights":[-1.961158E-2],"categories":[],"categories_nodes":[],"categories_segments":[],"categories_sizes":[],"default_left":[0],"id":33,"left_children":[-1],"loss_changes":[0E0],"parents":[2147483647],"right_children":[-1],"split_conditions":[-1.9611581E-3],"split_indices":[0],"split_type":[0],"sum_hessian":[6.408693E3],"tree_param":{"num_deleted":"0","num_feature":"3","num_nodes":"1","size_leaf_vector":"1"}},{"base_weights":[-1.7678393E-2],"categories":[],"categories_nodes":[],"categories_segments":[],"categories_sizes":[],"default_left":[0],"id":34,"left_children":[-1],"loss_changes":[0E0],"parents":[2147483647],"right_children":[-1],"split_conditions":[-1.7678393E-3],"split_indices":[0],"split_type":[0],"sum_hessian":[6.3991855E3],"tree_param":{"num_deleted":"0","num_feature":"3","num_nodes":"1","size_leaf_vector":"1"}},{"base_weights":[-1.5933296E-2],"categories":[],"categories_nodes":[],"categories_segments":[],"categories_sizes":[],"default_left":[0],"id":35,"left_children":[-1],"loss_changes":[0E0],"parents":[2147483647],"right_children":[-1],"split_conditions":[-1.5933296E-3],"split_indices":[0],"split_type":[0],"sum_hessian":[6.3906235E3],"tree_param":{"num_deleted":"0","num_feature":"3","num_nodes":"1","size_leaf_vector":"1"}},{"base_weights":[-1.4358485E-2],"categories":[],"categories_nodes":[],"categories_segments":[],"categories_sizes":[],"default_left":[0],"id":36,"left_children":[-1],"loss_changes":[0E0],"parents":[2147483647],"right_children":[-1],"split_conditions":[-1.4358485E-3],"split_indices":[0],"split_type":[0],"sum_hessian":[6.3829126E3],"tree_param":{"num_deleted":"0","num_feature":"3","num_nodes":"1","size_leaf_vector":"1"}},{"base_weights":[-1.29377395E-2],"categories":[],"categories_nodes":[],"categories_segments":[],"categories_sizes":[],"default_left":[0],"id":37,"left_children":[-1],"loss_changes":[0E0],"parents":[2147483647],"right_children":[-1],"split_conditions":[-1.293774E-3],"split_indices":[0],"split_type":[0],"sum_hessian":[6.375969E3],"tree_param":{"num_deleted":"0","num_feature":"3","num_nodes":"1","size_leaf_vector":"1"}},{"base_weights":[-1.1656271E-2],"categories":[],"categories_nodes":[],"categories_segments":[],"categories_sizes":[],"default_left":[0],"id":38,"left_children":[-1],"loss_changes":[0E0],"parents":[2147483647],"right_children":[-1],"split_conditions":[-1.1656272E-3],"split_indices":[0],"split_type":[0],"sum_hessian":[6.3697173E3],"tree_param":{"num_deleted":"0","num_feature":"3","num_nodes":"1","size_leaf_vector":"1"}},{"base_weights":[-1.0500612E-2],"categories":[],"categories_nodes":[],"categories_segments":[],"categories_sizes":[],"default_left":[0],"id":39,"left_children":[-1],"loss_changes":[0E0],"parents":[2147483647],"right_children":[-1],"split_conditions":[-1.0500612E-3],"split_indices":[0],"split_type":[0],"sum_hessian":[6.3640874E3],"tree_param":{"num_deleted":"0","num_feature":"3","num_nodes":"1","size_leaf_vector":"1"}},{"base_weights":[-9.458659E-3],"categories":[],"categories_nodes":[],"categories_segments":[],"categories_sizes":[],"default_left":[0],"id":40,"left_children":[-1],"loss_changes":[0E0],"parents":[2147483647],"right_children":[-1],"split_conditions":[-9.4586593E-4],"split_indices":[0],"split_type":[0],"sum_hessian":[6.3590186E3],"tree_param":{"num_deleted":"0","num_feature":"3","num_nodes":"1","size_leaf_vector":"1"}},{"base_weights":[-8.519455E-3],"categories":[],"categories_nodes":[],"categories_segments":[],"categories_sizes":[],"default_left":[0],"id":41,"left_children":[-1],"loss_changes":[0E0],"parents":[2147483647],"right_children":[-1],"split_conditions":[-8.519455E-4],"split_indices":[0],"split_type":[0],"sum_hessian":[6.354455E3],"tree_param":{"num_deleted":"0","num_feature":"3","num_nodes":"1","size_leaf_vector":"1"}},{"base_weights":[-7.672887E-3],"categories":[],"categories_nodes":[],"categories_segments":[],"categories_sizes":[],"default_left":[0],"id":42,"left_children":[-1],"loss_changes":[0E0],"parents":[2147483647],"right_children":[-1],"split_conditions":[-7.672887E-4],"split_indices":[0],"split_type":[0],"sum_hessian":[6.3503467E3],"tree_param":{"num_deleted":"0","num_feature":"3","num_nodes":"1","size_leaf_vector":"1"}},{"base_weights":[-6.91003E-3],"categories":[],"categories_nodes":[],"categories_segments":[],"categories_sizes":[],"default_left":[0],"id":43,"left_children":[-1],"loss_changes":[0E0],"parents":[2147483647],"right_children":[-1],"split_conditions":[-6.91003E-4],"split_indices":[0],"split_type":[0],"sum_hessian":[6.346648E3],"tree_param":{"num_deleted":"0","num_feature":"3","num_nodes":"1","size_leaf_vector":"1"}},{"base_weights":[-6.222578E-3],"categories":[],"categories_nodes":[],"categories_segments":[],"categories_sizes":[],"default_left":[0],"id":44,"left_children":[-1],"loss_changes":[0E0],"parents":[2147483647],"right_children":[-1],"split_conditions":[-6.222578E-4],"split_indices":[0],"split_type":[0],"sum_hessian":[6.343318E3],"tree_param":{"num_deleted":"0","num_feature":"3","num_nodes":"1","size_leaf_vector":"1"}},{"base_weights":[-5.6032115E-3],"categories":[],"categories_nodes":[],"categories_segments":[],"categories_sizes":[],"default_left":[0],"id":45,"left_children":[-1],"loss_changes":[0E0],"parents":[2147483647],"right_children":[-1],"split_conditions":[-5.6032115E-4],"split_indices":[0],"split_type":[0],"sum_hessian":[6.3403203E3],"tree_param":{"num_deleted":"0","num_feature":"3","num_nodes":"1","size_leaf_vector":"1"}},{"base_weights":[-5.0453013E-3],"categories":[],"categories_nodes":[],"categories_segments":[],"categories_sizes":[],"default_left":[0],"id":46,"left_children":[-1],"loss_changes":[0E0],"parents":[2147483647],"right_children":[-1],"split_conditions":[-5.0453015E-4],"split_indices":[0],"split_type":[0],"sum_hessian":[6.3376216E3],"tree_param":{"num_deleted":"0","num_feature":"3","num_nodes":"1","size_leaf_vector":"1"}},{"base_weights":[-4.5427056E-3],"categories":[],"categories_nodes":[],"categories_segments":[],"categories_sizes":[],"default_left":[0],"id":47,"left_children":[-1],"loss_changes":[0E0],"parents":[2147483647],"right_children":[-1],"split_conditions":[-4.5427057E-4],"split_indices":[0],"split_type":[0],"sum_hessian":[6.3351924E3],"tree_param":{"num_deleted":"0","num_feature":"3","num_nodes":"1","size_leaf_vector":"1"}},{"base_weights":[-4.0900023E-3],"categories":[],"categories_nodes":[],"categories_segments":[],"categories_sizes":[],"default_left":[0],"id":48,"left_children":[-1],"loss_changes":[0E0],"parents":[2147483647],"right_children":[-1],"split_conditions":[-4.0900023E-4],"split_indices":[0],"split_type":[0],"sum_hessian":[6.333006E3],"tree_param":{"num_deleted":"0","num_feature":"3","num_nodes":"1","size_leaf_vector":"1"}},{"base_weights":[-3.6823147E-3],"categories":[],"categories_nodes":[],"categories_segments":[],"categories_sizes":[],"default_left":[0],"id":49,"left_children":[-1],"loss_changes":[0E0],"parents":[2147483647],"right_children":[-1],"split_conditions":[-3.6823147E-4],"split_indices":[0],"split_type":[0],"sum_hessian":[6.3310376E3],"tree_param":{"num_deleted":"0","num_feature":"3","num_nodes":"1","size_leaf_vector":"1"}},{"base_weights":[-3.3151922E-3],"categories":[],"categories_nodes":[],"categories_segments":[],"categories_sizes":[],"default_left":[0],"id":50,"left_children":[-1],"loss_changes":[0E0],"parents":[2147483647],"right_children":[-1],"split_conditions":[-3.3151923E-4],"split_indices":[0],"split_type":[0],"sum_hessian":[6.329266E3],"tree_param":{"num_deleted":"0","num_feature":"3","num_nodes":"1","size_leaf_vector":"1"}},{"base_weights":[-2.9845487E-3,-1.20929435E-4,-4.4819225E-2],"categories":[],"categories_nodes":[],"categories_segments":[],"categories_sizes":[],"default_left":[0,0,0],"id":51,"left_children":[1,-1,-1],"loss_changes":[5.001367E0,0E0,0E0],"parents":[2147483647,0,0],"right_children":[2,-1,-1],"split_conditions":[7E0,-1.20929435E-4,-4.4819225E-2],"split_indices":[2,0,0],"split_type":[0,0,0],"sum_hessian":[6.3276714E3,6.3035386E3,2.4132484E1],"tree_param":{"num_deleted":"0","num_feature":"3","num_nodes":"3","size_leaf_vector":"1"}},{"base_weights":[-2.6973356E-3],"categories":[],"categories_nodes":[],"categories_segments":[],"categories_sizes":[],"default_left":[0],"id":52,"left_children":[-1],"loss_changes":[0E0],"parents":[2147483647],"right_children":[-1],"split_conditions":[-2.6973357E-4],"split_indices":[0],"split_type":[0],"sum_hessian":[6.3261255E3],"tree_param":{"num_deleted":"0","num_feature":"3","num_nodes":"1","size_leaf_vector":"1"}},{"base_weights":[-2.4282106E-3],"categories":[],"categories_nodes":[],"categories_segments":[],"categories_sizes":[],"default_left":[0],"id":53,"left_children":[-1],"loss_changes":[0E0],"parents":[2147483647],"right_children":[-1],"split_conditions":[-2.4282106E-4],"split_indices":[0],"split_type":[0],"sum_hessian":[6.3248286E3],"tree_param":{"num_deleted":"0","num_feature":"3","num_nodes":"1","size_leaf_vector":"1"}},{"base_weights":[-2.185884E-3],"categories":[],"categories_nodes":[],"categories_segments":[],"categories_sizes":[],"default_left":[0],"id":54,"left_children":[-1],"loss_changes":[0E0],"parents":[2147483647],"right_children":[-1],"split_conditions":[-2.185884E-4],"split_indices":[0],"split_type":[0],"sum_hessian":[6.323661E3],"tree_param":{"num_deleted":"0","num_feature":"3","num_nodes":"1","size_leaf_vector":"1"}},{"base_weights":[-1.9676108E-3],"categories":[],"categories_nodes":[],"categories_segments":[],"categories_sizes":[],"default_left":[0],"id":55,"left_children":[-1],"loss_changes":[0E0],"parents":[2147483647],"right_children":[-1],"split_conditions":[-1.9676109E-4],"split_indices":[0],"split_type":[0],"sum_hessian":[6.3226094E3],"tree_param":{"num_deleted":"0","num_feature":"3","num_nodes":"1","size_leaf_vector":"1"}},{"base_weights":[-1.771188E-3],"categories":[],"categories_nodes":[],"categories_segments":[],"categories_sizes":[],"default_left":[0],"id":56,"left_children":[-1],"loss_changes":[0E0],"parents":[2147483647],"right_children":[-1],"split_conditions":[-1.771188E-4],"split_indices":[0],"split_type":[0],"sum_hessian":[6.321664E3],"tree_param":{"num_deleted":"0","num_feature":"3","num_nodes":"1","size_leaf_vector":"1"}},{"base_weights":[-1.5942777E-3],"categories":[],"categories_nodes":[],"categories_segments":[],"categories_sizes":[],"default_left":[0],"id":57,"left_children":[-1],"loss_changes":[0E0],"parents":[2147483647],"right_children":[-1],"split_conditions":[-1.5942777E-4],"split_indices":[0],"split_type":[0],"sum_hessian":[6.320812E3],"tree_param":{"num_deleted":"0","num_feature":"3","num_nodes":"1","size_leaf_vector":"1"}},{"base_weights":[-1.4350745E-3],"categories":[],"categories_nodes":[],"categories_segments":[],"categories_sizes":[],"default_left":[0],"id":58,"left_children":[-1],"loss_changes":[0E0],"parents":[2147483647],"right_children":[-1],"split_conditions":[-1.4350745E-4],"split_indices":[0],"split_type":[0],"sum_hessian":[6.320046E3],"tree_param":{"num_deleted":"0","num_feature":"3","num_nodes":"1","size_leaf_vector":"1"}},{"base_weights":[-1.2917209E-3],"categories":[],"categories_nodes":[],"categories_segments":[],"categories_sizes":[],"default_left":[0],"id":59,"left_children":[-1],"loss_changes":[0E0],"parents":[2147483647],"right_children":[-1],"split_conditions":[-1.291721E-4],"split_indices":[0],"split_type":[0],"sum_hessian":[6.319356E3],"tree_param":{"num_deleted":"0","num_feature":"3","num_nodes":"1","size_leaf_vector":"1"}},{"base_weights":[-1.1626349E-3],"categories":[],"categories_nodes":[],"categories_segments":[],"categories_sizes":[],"default_left":[0],"id":60,"left_children":[-1],"loss_changes":[0E0],"parents":[2147483647],"right_children":[-1],"split_conditions":[-1.16263494E-4],"split_indices":[0],"split_type":[0],"sum_hessian":[6.318735E3],"tree_param":{"num_deleted":"0","num_feature":"3","num_nodes":"1","size_leaf_vector":"1"}},{"base_weights":[-1.0464701E-3],"categories":[],"categories_nodes":[],"categories_segments":[],"categories_sizes":[],"default_left":[0],"id":61,"left_children":[-1],"loss_changes":[0E0],"parents":[2147483647],"right_children":[-1],"split_conditions":[-1.0464701E-4],"split_indices":[0],"split_type":[0],"sum_hessian":[6.3181763E3],"tree_param":{"num_deleted":"0","num_feature":"3","num_nodes":"1","size_leaf_vector":"1"}},{"base_weights":[-9.4187923E-4],"categories":[],"categories_nodes":[],"categories_segments":[],"categories_sizes":[],"default_left":[0],"id":62,"left_children":[-1],"loss_changes":[0E0],"parents":[2147483647],"right_children":[-1],"split_conditions":[-9.4187926E-5],"split_indices":[0],"split_type":[0],"sum_hessian":[6.3176733E3],"tree_param":{"num_deleted":"0","num_feature":"3","num_nodes":"1","size_leaf_vector":"1"}},{"base_weights":[-8.4781594E-4],"categories":[],"categories_nodes":[],"categories_segments":[],"categories_sizes":[],"default_left":[0],"id":63,"left_children":[-1],"loss_changes":[0E0],"parents":[2147483647],"right_children":[-1],"split_conditions":[-8.47816E-5],"split_indices":[0],"split_type":[0],"sum_hessian":[6.3172207E3],"tree_param":{"num_deleted":"0","num_feature":"3","num_nodes":"1","size_leaf_vector":"1"}},{"base_weights":[-7.6306425E-4],"categories":[],"categories_nodes":[],"categories_segments":[],"categories_sizes":[],"default_left":[0],"id":64,"left_children":[-1],"loss_changes":[0E0],"parents":[2147483647],"right_children":[-1],"split_conditions":[-7.630642E-5],"split_indices":[0],"split_type":[0],"sum_hessian":[6.316813E3],"tree_param":{"num_deleted":"0","num_feature":"3","num_nodes":"1","size_leaf_vector":"1"}},{"base_weights":[-6.868062E-4],"categories":[],"categories_nodes":[],"categories_segments":[],"categories_sizes":[],"default_left":[0],"id":65,"left_children":[-1],"loss_changes":[0E0],"parents":[2147483647],"right_children":[-1],"split_conditions":[-6.868062E-5],"split_indices":[0],"split_type":[0],"sum_hessian":[6.3164463E3],"tree_param":{"num_deleted":"0","num_feature":"3","num_nodes":"1","size_leaf_vector":"1"}},{"base_weights":[-6.1820075E-4],"categories":[],"categories_nodes":[],"categories_segments":[],"categories_sizes":[],"default_left":[0],"id":66,"left_children":[-1],"loss_changes":[0E0],"parents":[2147483647],"right_children":[-1],"split_conditions":[-6.182008E-5],"split_indices":[0],"split_type":[0],"sum_hessian":[6.3161167E3],"tree_param":{"num_deleted":"0","num_feature":"3","num_nodes":"1","size_leaf_vector":"1"}},{"base_weights":[-5.564155E-4],"categories":[],"categories_nodes":[],"categories_segments":[],"categories_sizes":[],"default_left":[0],"id":67,"left_children":[-1],"loss_changes":[0E0],"parents":[2147483647],"right_children":[-1],"split_conditions":[-5.5641554E-5],"split_indices":[0],"split_type":[0],"sum_hessian":[6.3158193E3],"tree_param":{"num_deleted":"0","num_feature":"3","num_nodes":"1","size_leaf_vector":"1"}},{"base_weights":[-5.008289E-4],"categories":[],"categories_nodes":[],"categories_segments":[],"categories_sizes":[],"default_left":[0],"id":68,"left_children":[-1],"loss_changes":[0E0],"parents":[2147483647],"right_children":[-1],"split_conditions":[-5.008289E-5],"split_indices":[0],"split_type":[0],"sum_hessian":[6.3155522E3],"tree_param":{"num_deleted":"0","num_feature":"3","num_nodes":"1","size_leaf_vector":"1"}},{"base_weights":[-4.507961E-4],"categories":[],"categories_nodes":[],"categories_segments":[],"categories_sizes":[],"default_left":[0],"id":69,"left_children":[-1],"loss_changes":[0E0],"parents":[2147483647],"right_children":[-1],"split_conditions":[-4.507961E-5],"split_indices":[0],"split_type":[0],"sum_hessian":[6.315312E3],"tree_param":{"num_deleted":"0","num_feature":"3","num_nodes":"1","size_leaf_vector":"1"}},{"base_weights":[-4.0575926E-4],"categories":[],"categories_nodes":[],"categories_segments":[],"categories_sizes":[],"default_left":[0],"id":70,"left_children":[-1],"loss_changes":[0E0],"parents":[2147483647],"right_children":[-1],"split_conditions":[-4.0575927E-5],"split_indices":[0],"split_type":[0],"sum_hessian":[6.315095E3],"tree_param":{"num_deleted":"0","num_feature":"3","num_nodes":"1","size_leaf_vector":"1"}},{"base_weights":[-3.652406E-4],"categories":[],"categories_nodes":[],"categories_segments":[],"categories_sizes":[],"default_left":[0],"id":71,"left_children":[-1],"loss_changes":[0E0],"parents":[2147483647],"right_children":[-1],"split_conditions":[-3.652406E-5],"split_indices":[0],"split_type":[0],"sum_hessian":[6.314901E3],"tree_param":{"num_deleted":"0","num_feature":"3","num_nodes":"1","size_leaf_vector":"1"}},{"base_weights":[-3.2875294E-4],"categories":[],"categories_nodes":[],"categories_segments":[],"categories_sizes":[],"default_left":[0],"id":72,"left_children":[-1],"loss_changes":[0E0],"parents":[2147483647],"right_children":[-1],"split_conditions":[-3.2875294E-5],"split_indices":[0],"split_type":[0],"sum_hessian":[6.314725E3],"tree_param":{"num_deleted":"0","num_feature":"3","num_nodes":"1","size_leaf_vector":"1"}},{"base_weights":[-2.9589346E-4],"categories":[],"categories_nodes":[],"categories_segments":[],"categories_sizes":[],"default_left":[0],"id":73,"left_children":[-1],"loss_changes":[0E0],"parents":[2147483647],"right_children":[-1],"split_conditions":[-2.9589346E-5],"split_indices":[0],"split_type":[0],"sum_hessian":[6.3145674E3],"tree_param":{"num_deleted":"0","num_feature":"3","num_nodes":"1","size_leaf_vector":"1"}},{"base_weights":[-2.6632924E-4],"categories":[],"categories_nodes":[],"categories_segments":[],"categories_sizes":[],"default_left":[0],"id":74,"left_children":[-1],"loss_changes":[0E0],"parents":[2147483647],"right_children":[-1],"split_conditions":[-2.6632924E-5],"split_indices":[0],"split_type":[0],"sum_hessian":[6.3144253E3],"tree_param":{"num_deleted":"0","num_feature":"3","num_nodes":"1","size_leaf_vector":"1"}},{"base_weights":[-2.397054E-4],"categories":[],"categories_nodes":[],"categories_segments":[],"categories_sizes":[],"default_left":[0],"id":75,"left_children":[-1],"loss_changes":[0E0],"parents":[2147483647],"right_children":[-1],"split_conditions":[-2.397054E-5],"split_indices":[0],"split_type":[0],"sum_hessian":[6.3142974E3],"tree_param":{"num_deleted":"0","num_feature":"3","num_nodes":"1","size_leaf_vector":"1"}},{"base_weights":[-2.1573517E-4],"categories":[],"categories_nodes":[],"categories_segments":[],"categories_sizes":[],"default_left":[0],"id":76,"left_children":[-1],"loss_changes":[0E0],"parents":[2147483647],"right_children":[-1],"split_conditions":[-2.1573518E-5],"split_indices":[0],"split_type":[0],"sum_hessian":[6.314182E3],"tree_param":{"num_deleted":"0","num_feature":"3","num_nodes":"1","size_leaf_vector":"1"}},{"base_weights":[-1.9418095E-4],"categories":[],"categories_nodes":[],"categories_segments":[],"categories_sizes":[],"default_left":[0],"id":77,"left_children":[-1],"loss_changes":[0E0],"parents":[2147483647],"right_children":[-1],"split_conditions":[-1.9418096E-5],"split_indices":[0],"split_type":[0],"sum_hessian":[6.3140786E3],"tree_param":{"num_deleted":"0","num_feature":"3","num_nodes":"1","size_leaf_vector":"1"}},{"base_weights":[-1.7479953E-4],"categories":[],"categories_nodes":[],"categories_segments":[],"categories_sizes":[],"default_left":[0],"id":78,"left_children":[-1],"loss_changes":[0E0],"parents":[2147483647],"right_children":[-1],"split_conditions":[-1.7479953E-5],"split_indices":[0],"split_type":[0],"sum_hessian":[6.3139854E3],"tree_param":{"num_deleted":"0","num_feature":"3","num_nodes":"1","size_leaf_vector":"1"}},{"base_weights":[-1.573572E-4],"categories":[],"categories_nodes":[],"categories_segments":[],"categories_sizes":[],"default_left":[0],"id":79,"left_children":[-1],"loss_changes":[0E0],"parents":[2147483647],"right_children":[-1],"split_conditions":[-1.5735719E-5],"split_indices":[0],"split_type":[0],"sum_hessian":[6.3139014E3],"tree_param":{"num_deleted":"0","num_feature":"3","num_nodes":"1","size_leaf_vector":"1"}},{"base_weights":[-1.4160298E-4],"categories":[],"categories_nodes":[],"categories_segments":[],"categories_sizes":[],"default_left":[0],"id":80,"left_children":[-1],"loss_changes":[0E0],"parents":[2147483647],"right_children":[-1],"split_conditions":[-1.4160299E-5],"split_indices":[0],"split_type":[0],"sum_hessian":[6.313826E3],"tree_param":{"num_deleted":"0","num_feature":"3","num_nodes":"1","size_leaf_vector":"1"}},{"base_weights":[-1.2748649E-4],"categories":[],"categories_nodes":[],"categories_segments":[],"categories_sizes":[],"default_left":[0],"id":81,"left_children":[-1],"loss_changes":[0E0],"parents":[2147483647],"right_children":[-1],"split_conditions":[-1.2748649E-5],"split_indices":[0],"split_type":[0],"sum_hessian":[6.3137583E3],"tree_param":{"num_deleted":"0","num_feature":"3","num_nodes":"1","size_leaf_vector":"1"}},{"base_weights":[-1.1477069E-4],"categories":[],"categories_nodes":[],"categories_segments":[],"categories_sizes":[],"default_left":[0],"id":82,"left_children":[-1],"loss_changes":[0E0],"parents":[2147483647],"right_children":[-1],"split_conditions":[-1.1477069E-5],"split_indices":[0],"split_type":[0],"sum_hessian":[6.3136973E3],"tree_param":{"num_deleted":"0","num_feature":"3","num_nodes":"1","size_leaf_vector":"1"}},{"base_weights":[-1.0333217E-4],"categories":[],"categories_nodes":[],"categories_segments":[],"categories_sizes":[],"default_left":[0],"id":83,"left_children":[-1],"loss_changes":[0E0],"parents":[2147483647],"right_children":[-1],"split_conditions":[-1.0333217E-5],"split_indices":[0],"split_type":[0],"sum_hessian":[6.313642E3],"tree_param":{"num_deleted":"0","num_feature":"3","num_nodes":"1","size_leaf_vector":"1"}},{"base_weights":[-9.3024515E-5],"categories":[],"categories_nodes":[],"categories_segments":[],"categories_sizes":[],"default_left":[0],"id":84,"left_children":[-1],"loss_changes":[0E0],"parents":[2147483647],"right_children":[-1],"split_conditions":[-9.302452E-6],"split_indices":[0],"split_type":[0],"sum_hessian":[6.3135923E3],"tree_param":{"num_deleted":"0","num_feature":"3","num_nodes":"1","size_leaf_vector":"1"}},{"base_weights":[-8.372635E-5],"categories":[],"categories_nodes":[],"categories_segments":[],"categories_sizes":[],"default_left":[0],"id":85,"left_children":[-1],"loss_changes":[0E0],"parents":[2147483647],"right_children":[-1],"split_conditions":[-8.372635E-6],"split_indices":[0],"split_type":[0],"sum_hessian":[6.313548E3],"tree_param":{"num_deleted":"0","num_feature":"3","num_nodes":"1","size_leaf_vector":"1"}},{"base_weights":[-7.538355E-5],"categories":[],"categories_nodes":[],"categories_segments":[],"categories_sizes":[],"default_left":[0],"id":86,"left_children":[-1],"loss_changes":[0E0],"parents":[2147483647],"right_children":[-1],"split_conditions":[-7.538355E-6],"split_indices":[0],"split_type":[0],"sum_hessian":[6.313508E3],"tree_param":{"num_deleted":"0","num_feature":"3","num_nodes":"1","size_leaf_vector":"1"}},{"base_weights":[-6.781752E-5],"categories":[],"categories_nodes":[],"categories_segments":[],"categories_sizes":[],"default_left":[0],"id":87,"left_children":[-1],"loss_changes":[0E0],"parents":[2147483647],"right_children":[-1],"split_conditions":[-6.7817523E-6],"split_indices":[0],"split_type":[0],"sum_hessian":[6.3134717E3],"tree_param":{"num_deleted":"0","num_feature":"3","num_nodes":"1","size_leaf_vector":"1"}},{"base_weights":[-6.1069906E-5],"categories":[],"categories_nodes":[],"categories_segments":[],"categories_sizes":[],"default_left":[0],"id":88,"left_children":[-1],"loss_changes":[0E0],"parents":[2147483647],"right_children":[-1],"split_conditions":[-6.106991E-6],"split_indices":[0],"split_type":[0],"sum_hessian":[6.313439E3],"tree_param":{"num_deleted":"0","num_feature":"3","num_nodes":"1","size_leaf_vector":"1"}},{"base_weights":[-5.4936165E-5],"categories":[],"categories_nodes":[],"categories_segments":[],"categories_sizes":[],"default_left":[0],"id":89,"left_children":[-1],"loss_changes":[0E0],"parents":[2147483647],"right_children":[-1],"split_conditions":[-5.4936168E-6],"split_indices":[0],"split_type":[0],"sum_hessian":[6.3134097E3],"tree_param":{"num_deleted":"0","num_feature":"3","num_nodes":"1","size_leaf_vector":"1"}},{"base_weights":[-4.9467442E-5],"categories":[],"categories_nodes":[],"categories_segments":[],"categories_sizes":[],"default_left":[0],"id":90,"left_children":[-1],"loss_changes":[0E0],"parents":[2147483647],"right_children":[-1],"split_conditions":[-4.9467444E-6],"split_indices":[0],"split_type":[0],"sum_hessian":[6.3133833E3],"tree_param":{"num_deleted":"0","num_feature":"3","num_nodes":"1","size_leaf_vector":"1"}},{"base_weights":[-4.4530465E-5],"categories":[],"categories_nodes":[],"categories_segments":[],"categories_sizes":[],"default_left":[0],"id":91,"left_children":[-1],"loss_changes":[0E0],"parents":[2147483647],"right_children":[-1],"split_conditions":[-4.4530466E-6],"split_indices":[0],"split_type":[0],"sum_hessian":[6.3133594E3],"tree_param":{"num_deleted":"0","num_feature":"3","num_nodes":"1","size_leaf_vector":"1"}},{"base_weights":[-4.006903E-5],"categories":[],"categories_nodes":[],"categories_segments":[],"categories_sizes":[],"default_left":[0],"id":92,"left_children":[-1],"loss_changes":[0E0],"parents":[2147483647],"right_children":[-1],"split_conditions":[-4.006903E-6],"split_indices":[0],"split_type":[0],"sum_hessian":[6.313338E3],"tree_param":{"num_deleted":"0","num_feature":"3","num_nodes":"1","size_leaf_vector":"1"}},{"base_weights":[-3.6035755E-5],"categories":[],"categories_nodes":[],"categories_segments":[],"categories_sizes":[],"default_left":[0],"id":93,"left_children":[-1],"loss_changes":[0E0],"parents":[2147483647],"right_children":[-1],"split_conditions":[-3.6035756E-6],"split_indices":[0],"split_type":[0],"sum_hessian":[6.313319E3],"tree_param":{"num_deleted":"0","num_feature":"3","num_nodes":"1","size_leaf_vector":"1"}},{"base_weights":[-3.244144E-5],"categories":[],"categories_nodes":[],"categories_segments":[],"categories_sizes":[],"default_left":[0],"id":94,"left_children":[-1],"loss_changes":[0E0],"parents":[2147483647],"right_children":[-1],"split_conditions":[-3.244144E-6],"split_indices":[0],"split_type":[0],"sum_hessian":[6.3133013E3],"tree_param":{"num_deleted":"0","num_feature":"3","num_nodes":"1","size_leaf_vector":"1"}},{"base_weights":[-2.9177165E-5],"categories":[],"categories_nodes":[],"categories_segments":[],"categories_sizes":[],"default_left":[0],"id":95,"left_children":[-1],"loss_changes":[0E0],"parents":[2147483647],"right_children":[-1],"split_conditions":[-2.9177165E-6],"split_indices":[0],"split_type":[0],"sum_hessian":[6.3132856E3],"tree_param":{"num_deleted":"0","num_feature":"3","num_nodes":"1","size_leaf_vector":"1"}},{"base_weights":[-2.6305052E-5],"categories":[],"categories_nodes":[],"categories_segments":[],"categories_sizes":[],"default_left":[0],"id":96,"left_children":[-1],"loss_changes":[0E0],"parents":[2147483647],"right_children":[-1],"split_conditions":[-2.6305052E-6],"split_indices":[0],"split_type":[0],"sum_hessian":[6.313272E3],"tree_param":{"num_deleted":"0","num_feature":"3","num_nodes":"1","size_leaf_vector":"1"}},{"base_weights":[-2.3694942E-5],"categories":[],"categories_nodes":[],"categories_segments":[],"categories_sizes":[],"default_left":[0],"id":97,"left_children":[-1],"loss_changes":[0E0],"parents":[2147483647],"right_children":[-1],"split_conditions":[-2.3694943E-6],"split_indices":[0],"split_type":[0],"sum_hessian":[6.3132593E3],"tree_param":{"num_deleted":"0","num_feature":"3","num_nodes":"1","size_leaf_vector":"1"}},{"base_weights":[-2.1321675E-5],"categories":[],"categories_nodes":[],"categories_segments":[],"categories_sizes":[],"default_left":[0],"id":98,"left_children":[-1],"loss_changes":[0E0],"parents":[2147483647],"right_children":[-1],"split_conditions":[-2.1321675E-6],"split_indices":[0],"split_type":[0],"sum_hessian":[6.313248E3],"tree_param":{"num_deleted":"0","num_feature":"3","num_nodes":"1","size_leaf_vector":"1"}},{"base_weights":[-1.9153096E-5],"categories":[],"categories_nodes":[],"categories_segments":[],"categories_sizes":[],"default_left":[0],"id":99,"left_children":[-1],"loss_changes":[0E0],"parents":[2147483647],"right_children":[-1],"split_conditions":[-1.9153097E-6],"split_indices":[0],"split_type":[0],"sum_hessian":[6.313238E3],"tree_param":{"num_deleted":"0","num_feature":"3","num_nodes":"1","size_leaf_vector":"1"}}]},"name":"gbtree"},"learner_model_param":{"base_score":"1.7561331E-1","boost_from_average":"1","num_class":"0","num_feature":"3","num_target":"1"},"objective":{"name":"binary:logistic","reg_loss_param":{"scale_pos_weight":"1"}}},"version":[2,1,3]}